{"learner":{"attributes":{"best_iteration":"29","best_ntree_limit":"30"},"feature_names":[],"feature_types":[],"gradient_booster":{"model":{"gbtree_model_param":{"num_parallel_tree":"1","num_trees":"90","size_leaf_vector":"0"},"tree_info":[0,1,2,0,1,2,0,1,2,0,1,2,0,1,2,0,1,2,0,1,2,0,1,2,0,1,2,0,1,2,0,1,2,0,1,2,0,1,2,0,1,2,0,1,2,0,1,2,0,1,2,0,1,2,0,1,2,0,1,2,0,1,2,0,1,2,0,1,2,0,1,2,0,1,2,0,1,2,0,1,2,0,1,2,0,1,2,0,1,2],"trees":[{"base_weights":[1.4071695E0,1.4150361E0,2.2075471E-1,4.2691103E-1,7.8947365E-1,3E-1,-7.663455E-9],"categories":[],"categories_nodes":[],"categories_segments":[],"categories_sizes":[],"default_left":[1,1,0,0,1,0,0],"id":0,"left_children":[1,3,-1,-1,5,-1,-1],"loss_changes":[6.937866E-1,4.9645996E-1,0E0,0E0,1.0526316E0,0E0,0E0],"parents":[2147483647,0,0,1,1,4,4],"right_children":[2,4,-1,-1,6,-1,-1],"split_conditions":[8.8394284E-1,9.3629736E-1,2.2075471E-1,4.2691103E-1,1.5055254E-1,3E-1,-7.663455E-9],"split_indices":[9,3,0,0,0,0,0],"split_type":[0,0,0,0,0,0,0],"sum_hessian":[3.2755554E2,3.2266666E2,4.8888884E0,3.173333E2,5.333333E0,3.9999998E0,1.3333333E0],"tree_param":{"num_deleted":"0","num_feature":"10","num_nodes":"7","size_leaf_vector":"0"}},{"base_weights":[-6.868448E-1,-6.951597E-1,-1.13207586E-1,-2.1109949E-1,-1.5789478E-1,-6.206898E-2,-9.753488E-9,-1.2000001E-1,1.2857142E-1],"categories":[],"categories_nodes":[],"categories_segments":[],"categories_sizes":[],"default_left":[1,1,1,0,1,0,0,0,0],"id":1,"left_children":[1,3,5,-1,7,-1,-1,-1,-1],"loss_changes":[1.4884186E0,1.3679352E0,6.245932E-2,0E0,1.0706767E0,0E0,0E0,0E0,0E0],"parents":[2147483647,0,0,1,1,2,2,4,4],"right_children":[2,4,6,-1,8,-1,-1,-1,-1],"split_conditions":[8.8394284E-1,9.3629736E-1,-1E-5,-2.1109949E-1,1.5055254E-1,-6.206898E-2,-9.753488E-9,-1.2000001E-1,1.2857142E-1],"split_indices":[9,3,0,0,0,0,0,0,0],"split_type":[0,0,0,0,0,0,0,0,0],"sum_hessian":[3.2755554E2,3.2266666E2,4.8888884E0,3.173333E2,5.333333E0,2.222222E0,2.6666665E0,3.9999998E0,1.3333333E0],"tree_param":{"num_deleted":"0","num_feature":"10","num_nodes":"9","size_leaf_vector":"0"}},{"base_weights":[-7.203247E-1],"categories":[],"categories_nodes":[],"categories_segments":[],"categories_sizes":[],"default_left":[0],"id":2,"left_children":[-1],"loss_changes":[0E0],"parents":[2147483647],"right_children":[-1],"split_conditions":[-2.1609741E-1],"split_indices":[0],"split_type":[0],"sum_hessian":[3.2755554E2],"tree_param":{"num_deleted":"0","num_feature":"10","num_nodes":"1","size_leaf_vector":"0"}},{"base_weights":[9.511354E-1,8.4131554E-2,9.530153E-1,2.8724208E-1,1.6423367E-1],"categories":[],"categories_nodes":[],"categories_segments":[],"categories_sizes":[],"default_left":[0,0,1,0,0],"id":3,"left_children":[1,-1,3,-1,-1],"loss_changes":[1.9787598E-1,0E0,1.4019775E-1,0E0,0E0],"parents":[2147483647,0,0,2,2],"right_children":[2,-1,4,-1,-1],"split_conditions":[2.1993926E-1,8.4131554E-2,8.8394284E-1,2.8724208E-1,1.6423367E-1],"split_indices":[5,0,9,0,0],"split_type":[0,0,0,0,0],"sum_hessian":[3.678719E2,1.447983E0,3.664239E2,3.6109372E2,5.3301697E0],"tree_param":{"num_deleted":"0","num_feature":"10","num_nodes":"5","size_leaf_vector":"0"}},{"base_weights":[-6.025115E-1,-6.138056E-1,-2.0037337E-1,-6.225787E-1,-1.2750857E-1,3.1915717E-2,-2.5698966E-1,-1.892788E-1,-4.754245E-1,1.1886149E-1,-1.07887484E-1,-7.405286E-2,-1.466297E-1,3.1915717E-2,-1.5593715E-1,-4.4813287E-2,2.8417243E-3],"categories":[],"categories_nodes":[],"categories_segments":[],"categories_sizes":[],"default_left":[1,1,0,1,0,0,1,0,0,0,0,1,0,0,0,0,0],"id":4,"left_children":[1,3,5,7,9,-1,11,-1,13,-1,-1,15,-1,-1,-1,-1,-1],"loss_changes":[1.1658173E0,1.0961227E0,1.8775654E-1,3.2295227E-2,8.889069E-1,0E0,3.0683345E-1,0E0,5.3482676E-1,0E0,0E0,3.727694E-2,0E0,0E0,0E0,0E0,0E0],"parents":[2147483647,0,0,1,1,2,2,3,3,4,4,6,6,8,8,11,11],"right_children":[2,4,6,8,10,-1,12,-1,14,-1,-1,16,-1,-1,-1,-1,-1],"split_conditions":[7.408475E-1,9.3629736E-1,5.1819545E-1,7.4114954E-1,2.846857E-1,3.1915717E-2,-1E-5,-1.892788E-1,5.650787E-1,1.1886149E-1,-1.07887484E-1,1.4602801E-1,-1.466297E-1,3.1915717E-2,-1.5593715E-1,-4.4813287E-2,2.8417243E-3],"split_indices":[9,3,3,5,0,0,4,0,9,0,0,0,0,0,0,0,0],"split_type":[0,0,0,0,0,0,0,0,0,0,0,0,0,0,0,0,0],"sum_hessian":[2.8276825E2,2.7453168E2,8.236561E0,2.6939145E2,5.140232E0,1.1463466E0,7.090214E0,2.5181415E2,1.7577314E1,1.3614748E0,3.778757E0,4.7000484E0,2.3901653E0,1.1463466E0,1.643097E1,2.0567858E0,2.6432626E0],"tree_param":{"num_deleted":"0","num_feature":"10","num_nodes":"17","size_leaf_vector":"0"}},{"base_weights":[-6.3799685E-1,-1.9319822E-1,-4.5015544E-1,3.251017E-2,-1.5558869E-1],"categories":[],"categories_nodes":[],"categories_segments":[],"categories_sizes":[],"default_left":[1,0,0,0,0],"id":5,"left_children":[1,-1,3,-1,-1],"loss_changes":[2.7709961E-2,0E0,5.168569E-1,0E0,0E0],"parents":[2147483647,0,0,2,2],"right_children":[2,-1,4,-1,-1],"split_conditions":[7.549692E-1,-1.9319822E-1,7.599913E-1,3.251017E-2,-1.5558869E-1],"split_indices":[2,0,2,0,0],"split_type":[0,0,0,0,0],"sum_hessian":[2.809348E2,2.6988968E2,1.104514E1,1.1426008E0,9.90254E0],"tree_param":{"num_deleted":"0","num_feature":"10","num_nodes":"5","size_leaf_vector":"0"}},{"base_weights":[7.4989104E-1,7.543746E-1,4.1465718E-1,7.69471E-1,6.274969E-1,-3.9052956E-2,1.7462385E-1,2.3375405E-1,5.887005E-1,6.4484423E-1,2.338691E-2,-2.1584865E-3,6.7129815E-1,3.966347E-1,7.0851517E-1,2.1485579E-1,3.303411E-2,1.9304368E-1,1.9362941E-1,7.622667E-1,9.4857596E-2,1.139375E-1,-1.0040676E-1,2.3840389E-1,9.220393E-2],"categories":[],"categories_nodes":[],"categories_segments":[],"categories_sizes":[],"default_left":[1,1,0,1,1,0,0,0,0,0,0,0,1,1,0,0,0,0,0,1,0,0,0,0,0],"id":6,"left_children":[1,3,5,7,9,-1,-1,-1,11,13,-1,-1,15,17,19,-1,-1,21,-1,23,-1,-1,-1,-1,-1],"loss_changes":[2.1917725E-1,1.8380737E-1,7.044289E-1,7.946777E-2,3.5420036E-1,0E0,0E0,0E0,9.7542286E-1,3.6680984E-1,0E0,0E0,3.576765E-1,4.1437042E-1,4.2012596E-1,0E0,0E0,8.444368E-1,0E0,1.5189457E-1,0E0,0E0,0E0,0E0,0E0],"parents":[2147483647,0,0,1,1,2,2,3,3,4,4,8,8,9,9,12,12,13,13,14,14,17,17,19,19],"right_children":[2,4,6,8,10,-1,-1,-1,12,14,-1,-1,16,18,20,-1,-1,22,-1,24,-1,-1,-1,-1,-1],"split_conditions":[9.3629736E-1,4.61153E-1,9.581663E-1,6.9314414E-1,5.4036784E-1,-3.9052956E-2,1.7462385E-1,2.3375405E-1,7.0988977E-1,4.472813E-1,2.338691E-2,-2.1584865E-3,4.0189704E-1,-1E-5,8.453962E-1,2.1485579E-1,3.303411E-2,3.9018205E-1,1.9362941E-1,4.952182E-1,9.4857596E-2,1.139375E-1,-1.0040676E-1,2.3840389E-1,9.220393E-2],"split_indices":[3,9,3,2,2,0,0,0,2,4,0,0,5,5,9,0,0,4,0,5,0,0,0,0,0],"split_type":[0,0,0,0,0,0,0,0,0,0,0,0,0,0,0,0,0,0,0,0,0,0,0,0,0],"sum_hessian":[3.5293805E2,3.470462E2,5.8918476E0,3.0561798E2,4.142824E1,1.4372256E0,4.4546223E0,2.8689832E2,1.8719654E1,3.9992382E1,1.4358609E0,2.3900056E0,1.6329649E1,9.640421E0,3.0351961E1,1.4864472E1,1.4651766E0,6.278564E0,3.361857E0,2.5865255E1,4.4867063E0,4.8445606E0,1.4340034E0,2.3447756E1,2.4174986E0],"tree_param":{"num_deleted":"0","num_feature":"10","num_nodes":"25","size_leaf_vector":"0"}},{"base_weights":[-5.4143244E-1,-5.538322E-1,-1.52494E-1,-5.6380737E-1,-6.8243116E-2,-3.040748E-1,4.6257554E-3,-5.733336E-1,-4.0353325E-1,1.2119947E-1,-9.0268694E-2,-1.3712633E-1,1.4786313E-2,-6.44013E-3,6.78388E-3,-5.7716614E-1,-3.076046E-1,4.209024E-2,-1.356759E-1,-1.7757452E-1,-4.762925E-1,-1.2280017E-1,-3.6173582E-2,-1.5068461E-1,4.2291526E-3],"categories":[],"categories_nodes":[],"categories_segments":[],"categories_sizes":[],"default_left":[1,1,1,1,0,0,0,1,0,0,0,0,0,0,0,1,1,0,0,0,1,0,0,0,0],"id":7,"left_children":[1,3,5,7,9,11,13,15,17,-1,-1,-1,-1,-1,-1,19,21,-1,-1,-1,23,-1,-1,-1,-1],"loss_changes":[1.0641785E0,1.077713E0,2.0952632E-1,1.1318207E-1,7.561689E-1,2.6381966E-1,2.9615997E-3,3.6964417E-2,4.8834658E-1,0E0,0E0,0E0,0E0,0E0,0E0,2.5276184E-2,4.8353672E-2,0E0,0E0,0E0,4.0802288E-1,0E0,0E0,0E0,0E0],"parents":[2147483647,0,0,1,1,2,2,3,3,4,4,5,5,6,6,7,7,8,8,15,15,16,16,20,20],"right_children":[2,4,6,8,10,12,14,16,18,-1,-1,-1,-1,-1,-1,20,22,-1,-1,-1,24,-1,-1,-1,-1],"split_conditions":[7.408475E-1,9.3629736E-1,2.2452931E-1,7.4114954E-1,9.581663E-1,1E0,6.8153363E-1,8.5846996E-1,5.650787E-1,1.2119947E-1,-9.0268694E-2,-1.3712633E-1,1.4786313E-2,-6.44013E-3,6.78388E-3,4.680334E-1,2.6755798E-1,4.209024E-2,-1.356759E-1,-1.7757452E-1,5.735911E-1,-1.2280017E-1,-3.6173582E-2,-1.5068461E-1,4.2291526E-3],"split_indices":[9,3,0,5,3,9,4,3,9,0,0,0,0,0,0,2,0,0,0,0,5,0,0,0,0],"split_type":[0,0,0,0,0,0,0,0,0,0,0,0,0,0,0,0,0,0,0,0,0,0,0,0,0],"sum_hessian":[2.3717181E2,2.2943329E2,7.738529E0,2.246572E2,4.7760844E0,3.462646E0,4.2758827E0,2.0962068E2,1.5036512E1,1.3332822E0,3.4428022E0,2.2114897E0,1.2511564E0,1.6658595E0,2.6100235E0,2.0548506E2,4.135628E0,1.081749E0,1.3954763E1,1.750263E2,3.045875E1,1.9087515E0,2.2268767E0,2.8902721E1,1.5560286E0],"tree_param":{"num_deleted":"0","num_feature":"10","num_nodes":"25","size_leaf_vector":"0"}},{"base_weights":[-5.8197963E-1,-5.8884084E-1,-3.791725E-1,-4.6970204E-1,-6.041717E-1,4.2681023E-2,-4.5407754E-1,-5.567419E-1,-6.320878E-2,-3.3962715E-1,-1.8268606E-1,-1.5916523E-1,-6.325613E-2,-1.7855899E-1,-1.8150384E-2,-2.9272464E-1,1.18210636E-1,-1.449712E-1,2.8261747E-2,-1.3641742E-1,2.8261747E-2],"categories":[],"categories_nodes":[],"categories_segments":[],"categories_sizes":[],"default_left":[1,0,0,1,0,0,1,1,0,1,0,0,0,0,0,1,0,0,0,0,0],"id":8,"left_children":[1,3,5,7,9,-1,11,13,15,17,-1,-1,-1,-1,-1,19,-1,-1,-1,-1,-1],"loss_changes":[1.02996826E-1,1.2717438E-1,4.7399652E-1,1.0313625E0,4.09317E-2,0E0,6.303847E-2,4.3534088E-1,7.9165184E-1,4.0303695E-1,0E0,0E0,0E0,0E0,0E0,3.4775475E-1,0E0,0E0,0E0,0E0,0E0],"parents":[2147483647,0,0,1,1,2,2,3,3,4,4,6,6,7,7,8,8,9,9,15,15],"right_children":[2,4,6,8,10,-1,12,14,16,18,-1,-1,-1,-1,-1,20,-1,-1,-1,-1,-1],"split_conditions":[7.549692E-1,4.472813E-1,7.599913E-1,4.855451E-1,3.4352422E-1,4.2681023E-2,4.5861065E-1,7.125849E-1,3.9018205E-1,2.0625468E-1,-1.8268606E-1,-1.5916523E-1,-6.325613E-2,-1.7855899E-1,-1.8150384E-2,3.9289442E-1,1.18210636E-1,-1.449712E-1,2.8261747E-2,-1.3641742E-1,2.8261747E-2],"split_indices":[2,4,2,9,3,0,0,5,4,0,0,0,0,0,0,0,0,0,0,0,0],"split_type":[0,0,0,0,0,0,0,0,0,0,0,0,0,0,0,0,0,0,0,0,0],"sum_hessian":[2.3347736E2,2.2399583E2,9.481533E0,2.9144716E1,1.9485112E2,1.0779777E0,8.403555E0,2.3700298E1,5.444417E0,4.7383122E0,1.9011281E2,5.4946322E0,2.908923E0,2.1810728E1,1.8895713E0,3.8644469E0,1.5799701E0,3.4743361E0,1.2639761E0,2.6004708E0,1.2639761E0],"tree_param":{"num_deleted":"0","num_feature":"10","num_nodes":"21","size_leaf_vector":"0"}},{"base_weights":[6.354769E-1,6.399328E-1,3.3385223E-1,6.546193E-1,5.213712E-1,-4.0799316E-2,1.4556181E-1,6.638393E-1,4.896788E-1,5.3875816E-1,7.4963477E-3,2.0835446E-1,6.0524046E-1,-1.6194932E-2,5.7231313E-1,1.0965479E-2,5.5691296E-1,1.6667244E-1,6.2195855E-1,1.8358478E-1,3.240353E-2,5.759084E-1,3.4564488E-2,1.4857522E-1,-8.222378E-2,1.9144051E-1,1.00669086E-1,3.7730634E-2,1.7891377E-1],"categories":[],"categories_nodes":[],"categories_segments":[],"categories_sizes":[],"default_left":[1,1,0,1,1,0,0,1,0,0,0,0,0,0,1,0,1,1,1,0,0,0,0,0,0,0,0,0,0],"id":9,"left_children":[1,3,5,7,9,-1,-1,11,13,15,-1,-1,17,-1,19,-1,21,23,25,-1,-1,27,-1,-1,-1,-1,-1,-1,-1],"loss_changes":[2.1035767E-1,1.9812775E-1,5.4126465E-1,8.816528E-2,3.2362747E-1,0E0,0E0,3.71933E-2,8.4839916E-1,3.232546E-1,0E0,0E0,5.9464264E-1,0E0,2.261858E-1,0E0,2.3822975E-1,8.4004754E-1,2.0920181E-1,0E0,0E0,2.4340916E-1,0E0,0E0,0E0,0E0,0E0,0E0,0E0],"parents":[2147483647,0,0,1,1,2,2,3,3,4,4,7,7,8,8,9,9,12,12,14,14,16,16,17,17,18,18,21,21],"right_children":[2,4,6,8,10,-1,-1,12,14,16,-1,-1,18,-1,20,-1,22,24,26,-1,-1,28,-1,-1,-1,-1,-1,-1,-1],"split_conditions":[9.3629736E-1,4.61153E-1,2.846857E-1,6.9314414E-1,5.4036784E-1,-4.0799316E-2,1.4556181E-1,4.087405E-1,7.0988977E-1,3.3544034E-1,7.4963477E-3,2.0835446E-1,3.7146378E-1,-1.6194932E-2,4.0189704E-1,1.0965479E-2,5.6535995E-1,2.99846E-1,7.125849E-1,1.8358478E-1,3.240353E-2,5.4422474E-1,3.4564488E-2,1.4857522E-1,-8.222378E-2,1.9144051E-1,1.00669086E-1,3.7730634E-2,1.7891377E-1],"split_indices":[3,9,0,2,2,0,0,0,2,3,0,0,3,0,5,0,7,4,5,0,0,8,0,0,0,0,0,0,0],"split_type":[0,0,0,0,0,0,0,0,0,0,0,0,0,0,0,0,0,0,0,0,0,0,0,0,0,0,0,0,0],"sum_hessian":[3.1447314E2,3.0878976E2,5.6833625E0,2.7073224E2,3.8057526E1,1.4094484E0,4.2739143E0,2.5353522E2,1.7197037E1,3.6687107E1,1.3704176E0,1.5929485E2,9.4240364E1,2.3147464E0,1.4882291E1,1.3851008E0,3.5302006E1,3.863297E0,9.037707E1,1.3418767E1,1.4635239E0,3.35551E1,1.7469063E0,2.1424563E0,1.7208407E0,8.4382706E1,5.994368E0,1.7703371E0,3.1784763E1],"tree_param":{"num_deleted":"0","num_feature":"10","num_nodes":"29","size_leaf_vector":"0"}},{"base_weights":[-4.9282318E-1,-5.067432E-1,-1.1813593E-1,-5.178851E-1,-4.364093E-2,-2.6864177E-1,8.529738E-3,-5.29195E-1,-3.380716E-1,1.053239E-1,-7.7222355E-2,-1.259071E-1,1.4928627E-2,-5.336361E-1,-2.508066E-1,4.4512026E-2,-1.1724872E-1,-1.6517457E-1,-4.2288733E-1,-1.09891795E-1,-1.9787202E-2,-1.3514487E-1,4.1089864E-3],"categories":[],"categories_nodes":[],"categories_segments":[],"categories_sizes":[],"default_left":[1,1,1,1,0,0,0,1,0,0,0,0,0,1,1,0,0,0,1,0,0,0,0],"id":10,"left_children":[1,3,5,7,9,11,-1,13,15,-1,-1,-1,-1,17,19,-1,-1,-1,21,-1,-1,-1,-1],"loss_changes":[9.660797E-1,9.544487E-1,1.9183466E-1,1.9694519E-1,5.578892E-1,2.2362122E-1,0E0,7.8948975E-2,4.0971887E-1,0E0,0E0,0E0,0E0,8.3431244E-2,7.38208E-2,0E0,0E0,0E0,3.2754707E-1,0E0,0E0,0E0,0E0],"parents":[2147483647,0,0,1,1,2,2,3,3,4,4,5,5,7,7,8,8,13,13,14,14,18,18],"right_children":[2,4,6,8,10,12,-1,14,16,-1,-1,-1,-1,18,20,-1,-1,-1,22,-1,-1,-1,-1],"split_conditions":[7.408475E-1,9.3629736E-1,2.2452931E-1,7.4114954E-1,2.846857E-1,1E0,8.529738E-3,8.5846996E-1,5.650787E-1,1.053239E-1,-7.7222355E-2,-1.259071E-1,1.4928627E-2,4.680334E-1,2.6755798E-1,4.4512026E-2,-1.1724872E-1,-1.6517457E-1,5.735911E-1,-1.09891795E-1,-1.9787202E-2,-1.3514487E-1,4.1089864E-3],"split_indices":[9,3,0,5,0,9,0,3,9,0,0,0,0,2,0,0,0,0,5,0,0,0,0],"split_type":[0,0,0,0,0,0,0,0,0,0,0,0,0,0,0,0,0,0,0,0,0,0,0],"sum_hessian":[1.9570523E2,1.8835521E2,7.3500247E0,1.8381445E2,4.5407495E0,3.2153847E0,4.1346397E0,1.7110904E2,1.2705418E1,1.3695421E0,3.1712077E0,1.9650648E0,1.2503198E0,1.6751974E2,3.5892968E0,1.0658135E0,1.1639605E1,1.4184451E2,2.567522E1,1.6048753E0,1.9844215E0,2.4118881E1,1.5563408E0],"tree_param":{"num_deleted":"0","num_feature":"10","num_nodes":"23","size_leaf_vector":"0"}},{"base_weights":[-5.4056835E-1,-5.4852986E-1,-3.2395163E-1,-4.1724908E-1,-5.662652E-1,4.118803E-2,-4.0239322E-1,-5.119558E-1,-4.1896947E-2,-1.7342533E-1,-3.783453E-1,-1.4664595E-1,-4.6348922E-2,-1.6717713E-1,-2.629507E-3,1.8615374E-1,-1.1807233E-1,-4.4712824E-1,5.4266643E-2,-1.448102E-1,1.9545111E-1,1.2052358E-2,-1.5841036E-1,3.4181904E-2,-1.01373225E-1],"categories":[],"categories_nodes":[],"categories_segments":[],"categories_sizes":[],"default_left":[1,0,0,1,1,0,1,1,1,0,1,0,0,0,0,0,0,0,0,0,0,0,0,0,0],"id":11,"left_children":[1,3,5,7,9,-1,11,13,15,-1,17,-1,-1,-1,-1,19,-1,21,-1,23,-1,-1,-1,-1,-1],"loss_changes":[1.5261841E-1,1.9050217E-1,3.8928246E-1,8.891363E-1,1.3373184E-1,0E0,9.898293E-2,4.5934725E-1,5.7452375E-1,0E0,5.5338967E-1,0E0,0E0,0E0,0E0,7.8284097E-1,0E0,4.6382928E-1,0E0,2.0990708E-1,0E0,0E0,0E0,0E0,0E0],"parents":[2147483647,0,0,1,1,2,2,3,3,4,4,6,6,7,7,8,8,10,10,15,15,17,17,19,19],"right_children":[2,4,6,8,10,-1,12,14,16,-1,18,-1,-1,-1,-1,20,-1,22,-1,24,-1,-1,-1,-1,-1],"split_conditions":[7.549692E-1,4.472813E-1,7.599913E-1,4.855451E-1,8.235138E-1,4.118803E-2,4.5861065E-1,7.125849E-1,-1E-5,-1.7342533E-1,3.8006842E-1,-1.4664595E-1,-4.6348922E-2,-1.6717713E-1,-2.629507E-3,3.9018205E-1,-1.1807233E-1,5.684187E-1,5.4266643E-2,3.7546352E-1,1.9545111E-1,1.2052358E-2,-1.5841036E-1,3.4181904E-2,-1.01373225E-1],"split_indices":[2,4,2,9,4,0,0,5,3,0,0,0,0,0,0,4,0,8,0,4,0,0,0,0,0],"split_type":[0,0,0,0,0,0,0,0,0,0,0,0,0,0,0,0,0,0,0,0,0,0,0,0,0],"sum_hessian":[1.9052986E2,1.8229744E2,8.232424E0,2.46154E1,1.5768204E2,1.087506E0,7.144918E0,1.9365318E1,5.250082E0,1.4639815E2,1.1283891E1,4.577243E0,2.5676749E0,1.7667316E1,1.6980008E0,3.4703493E0,1.7797326E0,1.0226542E1,1.0573488E0,2.4305325E0,1.0398171E0,1.5278234E0,8.698719E0,1.2138928E0,1.2166395E0],"tree_param":{"num_deleted":"0","num_feature":"10","num_nodes":"25","size_leaf_vector":"0"}},{"base_weights":[5.5783606E-1,5.629619E-1,7.685098E-2,4.1098064E-1,5.7884216E-1,4.6084768E-1,-6.283237E-2,5.886827E-1,3.9361066E-1,5.24099E-1,-4.966895E-2,1.7859934E-1,3.9559326E-1,-2.754256E-2,4.8610392E-1,5.941303E-1,1.3755159E-1,2.0875225E-2,1.2874936E-1,1.5777496E-1,3.1780913E-2,3.7486847E-2,1.8762274E-1,-7.772598E-2,1.3560262E-1],"categories":[],"categories_nodes":[],"categories_segments":[],"categories_sizes":[],"default_left":[1,0,0,1,1,1,0,1,0,1,0,0,0,0,1,0,0,0,0,0,0,0,0,0,0],"id":12,"left_children":[1,3,-1,5,7,9,-1,11,13,15,-1,-1,17,-1,19,21,23,-1,-1,-1,-1,-1,-1,-1,-1],"loss_changes":[2.7399445E-1,4.0193176E-1,0E0,9.791336E-1,2.0133209E-1,1.1453733E0,0E0,5.1498413E-2,7.1820474E-1,5.8170986E-1,0E0,0E0,8.4204316E-2,0E0,1.3741684E-1,2.2192049E-1,7.482614E-1,0E0,0E0,0E0,0E0,0E0,0E0,0E0,0E0],"parents":[2147483647,0,0,1,1,3,3,4,4,5,5,7,7,8,8,9,9,12,12,14,14,15,15,16,16],"right_children":[2,4,-1,6,8,10,-1,12,14,16,-1,-1,18,-1,20,22,24,-1,-1,-1,-1,-1,-1,-1,-1],"split_conditions":[8.8394284E-1,3.9246827E-1,7.685098E-2,5.344816E-1,6.9314414E-1,7.3440015E-1,-6.283237E-2,8.520021E-1,7.0988977E-1,3.921473E-1,-4.966895E-2,1.7859934E-1,4.209202E-1,-2.754256E-2,4.0189704E-1,1.9022734E-1,4.7584406E-1,2.0875225E-2,1.2874936E-1,1.5777496E-1,3.1780913E-2,3.7486847E-2,1.8762274E-1,-7.772598E-2,1.3560262E-1],"split_indices":[9,4,0,9,2,0,0,3,2,1,0,0,5,0,5,0,0,0,0,0,0,0,0,0,0],"split_type":[0,0,0,0,0,0,0,0,0,0,0,0,0,0,0,0,0,0,0,0,0,0,0,0,0],"sum_hessian":[2.69456E2,2.6410223E2,5.353756E0,2.75279E1,2.3657434E2,2.5717993E1,1.8099068E0,2.2257198E2,1.4002361E1,2.3507658E1,2.210335E0,2.1314967E2,9.422307E0,2.242224E0,1.1760138E1,1.9447338E1,4.06032E0,1.1665647E0,8.255742E0,1.0298282E1,1.4618556E0,1.5276654E0,1.7919672E1,1.8734018E0,2.1869183E0],"tree_param":{"num_deleted":"0","num_feature":"10","num_nodes":"25","size_leaf_vector":"0"}},{"base_weights":[-4.4950965E-1,-4.660753E-1,-6.63702E-2,-4.8324838E-1,-1.1122774E-1,2.0228632E-2,-9.394041E-2,-4.9746317E-1,-2.7897745E-1,-2.9463905E-1,1.2309485E-1,-2.1804243E-1,7.631925E-2,-5.176086E-1,-3.7308928E-1,5.209488E-2,-1.01283364E-1,-1.2170189E-1,-2.9164905E-2,1.168588E-1,-3.0452859E-2,-1.1330783E-1,2.2347985E-2,-1.5946439E-1,-3.644638E-1,-4.0641272E-1,2.1821076E-2,-1.5460712E-1,1.403955E-1,-1.3321956E-1,1.1770979E-2],"categories":[],"categories_nodes":[],"categories_segments":[],"categories_sizes":[],"default_left":[1,1,1,1,1,1,0,1,0,0,0,0,0,1,1,0,0,0,0,0,0,0,0,0,1,1,0,0,0,0,0],"id":13,"left_children":[1,3,5,7,9,11,-1,13,15,17,19,21,-1,23,25,-1,-1,-1,-1,-1,-1,-1,-1,-1,27,29,-1,-1,-1,-1,-1],"loss_changes":[9.916649E-1,8.8636017E-1,1.7394534E-1,2.8762436E-1,3.9815828E-1,4.318259E-1,0E0,1.4769363E-1,3.7261504E-1,7.056013E-2,3.0299312E-1,2.0943002E-1,0E0,5.0653458E-2,3.6446166E-1,0E0,0E0,0E0,0E0,0E0,0E0,0E0,0E0,0E0,1.8404515E0,3.7192154E-1,0E0,0E0,0E0,0E0,0E0],"parents":[2147483647,0,0,1,1,2,2,3,3,4,4,5,5,7,7,8,8,9,9,10,10,11,11,13,13,14,14,24,24,25,25],"right_children":[2,4,6,8,10,12,-1,14,16,18,20,22,-1,24,26,-1,-1,-1,-1,-1,-1,-1,-1,-1,28,30,-1,-1,-1,-1,-1],"split_conditions":[7.408475E-1,8.5846996E-1,3.7546352E-1,7.4114954E-1,1.8583137E-1,2.2452931E-1,-9.394041E-2,4.680334E-1,5.650787E-1,1E0,2.846857E-1,1E0,7.631925E-2,5.812963E-1,5.246279E-1,5.209488E-2,-1.01283364E-1,-1.2170189E-1,-2.9164905E-2,1.168588E-1,-3.0452859E-2,-1.1330783E-1,2.2347985E-2,-1.5946439E-1,2.9939863E-1,5.033815E-1,2.1821076E-2,-1.5460712E-1,1.403955E-1,-1.3321956E-1,1.1770979E-2],"split_indices":[9,3,4,5,0,0,0,2,9,3,0,9,0,1,7,0,0,0,0,0,0,0,0,0,4,3,0,0,0,0,0],"split_type":[0,0,0,0,0,0,0,0,0,0,0,0,0,0,0,0,0,0,0,0,0,0,0,0,0,0,0,0,0,0,0],"sum_hessian":[1.6011618E2,1.5327272E2,6.843466E0,1.4585226E2,7.4204636E0,5.7452636E0,1.0982021E0,1.3502113E2,1.0831131E1,4.0180264E0,3.4024374E0,2.881823E0,2.8634408E0,1.1347871E2,2.1542423E1,1.017199E0,9.813932E0,1.8965373E0,2.1214888E0,1.2204278E0,2.1820097E0,1.6760339E0,1.2057891E0,1.0174675E2,1.1731954E1,2.0126469E1,1.4159546E0,1.0254156E1,1.4777976E0,1.8561758E1,1.5647093E0],"tree_param":{"num_deleted":"0","num_feature":"10","num_nodes":"31","size_leaf_vector":"0"}},{"base_weights":[-5.0695574E-1,-5.1644194E-1,-2.7299893E-1,-3.676947E-1,-5.3769225E-1,3.979904E-2,-3.5484615E-1,-4.738119E-1,-8.890904E-3,-1.656335E-1,-3.219977E-1,-1.3604772E-1,-3.0759353E-2,-1.5844247E-1,1.0560201E-2,2.060879E-1,-1.1005931E-1,2.0251483E-2,-1.4596845E-1,-1.05827965E-1,1.7477073E-1,-1.1238616E-1,1.4759186E-1,-9.57907E-2,4.7871556E-2],"categories":[],"categories_nodes":[],"categories_segments":[],"categories_sizes":[],"default_left":[1,0,0,1,1,0,1,1,1,0,0,0,0,0,0,0,0,0,0,1,0,0,0,0,0],"id":14,"left_children":[1,3,5,7,9,-1,11,13,15,-1,17,-1,-1,-1,-1,19,-1,21,-1,23,-1,-1,-1,-1,-1],"loss_changes":[2.0243454E-1,2.6881027E-1,3.1771308E-1,8.1867623E-1,2.171402E-1,0E0,1.2909663E-1,4.793179E-1,5.336569E-1,0E0,5.931194E-1,0E0,0E0,0E0,0E0,5.7354033E-1,0E0,9.8948115E-1,0E0,2.3396364E-1,0E0,0E0,0E0,0E0,0E0],"parents":[2147483647,0,0,1,1,2,2,3,3,4,4,6,6,7,7,8,8,10,10,15,15,17,17,19,19],"right_children":[2,4,6,8,10,-1,12,14,16,-1,18,-1,-1,-1,-1,20,-1,22,-1,24,-1,-1,-1,-1,-1],"split_conditions":[7.549692E-1,4.472813E-1,7.599913E-1,4.855451E-1,8.235138E-1,3.979904E-2,4.5861065E-1,7.125849E-1,-1E-5,-1.656335E-1,8.760736E-1,-1.3604772E-1,-3.0759353E-2,-1.5844247E-1,1.0560201E-2,3.9018205E-1,-1.1005931E-1,4.087405E-1,-1.4596845E-1,2.733577E-1,1.7477073E-1,-1.1238616E-1,1.4759186E-1,-9.57907E-2,4.7871556E-2],"split_indices":[2,4,2,9,4,0,0,5,3,0,4,0,0,0,0,4,0,0,0,0,0,0,0,0,0],"split_type":[0,0,0,0,0,0,0,0,0,0,0,0,0,0,0,0,0,0,0,0,0,0,0,0,0],"sum_hessian":[1.5374092E2,1.4658975E2,7.15117E0,2.0612185E1,1.2597757E2,1.0963624E0,6.0548077E0,1.5660129E1,4.952057E0,1.1662162E2,9.355944E0,3.779737E0,2.2750707E0,1.4115884E1,1.5442446E0,3.3590765E0,1.5929804E0,3.3226497E0,6.033294E0,2.230228E0,1.1288486E0,1.9206997E0,1.4019499E0,1.1234674E0,1.1067604E0],"tree_param":{"num_deleted":"0","num_feature":"10","num_nodes":"25","size_leaf_vector":"0"}},{"base_weights":[4.984683E-1,5.387146E-1,4.3067476E-1,5.4950154E-1,2.107918E-1,6.130879E-2,4.6981686E-1,5.54134E-1,2.1434829E-2,-4.518838E-2,1.0387633E-1,2.1520106E-1,-1.7967233E-1,4.7967044E-1,-3.95849E-2,1.7030469E-1,4.038002E-1,-1.7715932E-1,1.4976104E-1,4.9658254E-1,5.110484E-2,1.1429216E-1,1.7134859E-1,1.0792986E-1,-1.7080395E-1,5.096908E-1,3.8490318E-2,-3.400627E-2,1.2751593E-1,1.582483E-1,7.572559E-2],"categories":[],"categories_nodes":[],"categories_segments":[],"categories_sizes":[],"default_left":[1,1,0,1,0,0,1,1,0,0,0,0,0,1,0,0,0,1,0,1,0,1,0,0,0,1,0,0,0,0,0],"id":15,"left_children":[1,3,5,7,9,11,13,15,-1,-1,-1,17,-1,19,-1,-1,21,23,-1,25,-1,27,-1,-1,-1,29,-1,-1,-1,-1,-1],"loss_changes":[3.8755417E-1,3.740883E-1,1.2662582E0,2.5598145E-1,3.4753525E-1,1.1177762E0,5.4265404E-1,3.970337E-2,0E0,0E0,0E0,1.0499551E0,0E0,3.3263206E-1,0E0,0E0,6.314573E-1,1.1232067E0,0E0,2.9714775E-1,0E0,5.0927424E-1,0E0,0E0,0E0,1.974659E-1,0E0,0E0,0E0,0E0,0E0],"parents":[2147483647,0,0,1,1,2,2,3,3,4,4,5,5,6,6,7,7,11,11,13,13,16,16,17,17,19,19,21,21,25,25],"right_children":[2,4,6,8,10,12,14,16,-1,-1,-1,18,-1,20,-1,-1,22,24,-1,26,-1,28,-1,-1,-1,30,-1,-1,-1,-1,-1],"split_conditions":[3.916438E-1,9.3629736E-1,3.703152E-1,1E0,9.581663E-1,3.5634586E-1,8.446976E-1,5.3422797E-1,2.1434829E-2,-4.518838E-2,1.0387633E-1,4.7584406E-1,-1.7967233E-1,7.016374E-1,-3.95849E-2,1.7030469E-1,6.1403555E-1,-1E-5,1.4976104E-1,7.795045E-1,5.110484E-2,-1E-5,1.7134859E-1,1.0792986E-1,-1.7080395E-1,6.595711E-1,3.8490318E-2,-3.400627E-2,1.2751593E-1,1.582483E-1,7.572559E-2],"split_indices":[0,3,4,9,3,4,4,9,0,0,0,0,0,5,0,0,9,1,0,9,0,5,0,0,0,2,0,0,0,0,0],"split_type":[0,0,0,0,0,0,0,0,0,0,0,0,0,0,0,0,0,0,0,0,0,0,0,0,0,0,0,0,0,0,0],"sum_hessian":[2.260771E2,1.3750157E2,8.857553E1,1.3246835E2,5.0332217E0,8.732962E0,7.984257E1,1.310394E2,1.4289525E0,1.3416616E0,3.69156E0,7.628785E0,1.1041764E0,7.875588E1,1.0866834E0,1.1765963E2,1.3379772E1,3.3612673E0,4.2675176E0,7.409912E1,4.6567616E0,5.5178E0,7.861973E0,1.453717E0,1.9075503E0,7.118159E1,2.9175391E0,3.5514436E0,1.9663562E0,6.559219E1,5.5893903E0],"tree_param":{"num_deleted":"0","num_feature":"10","num_nodes":"31","size_leaf_vector":"0"}},{"base_weights":[-4.084968E-1,-4.2717698E-1,-4.43925E-2,-4.4698796E-1,-7.475477E-2,-1.8988933E-1,2.2441817E-2,-4.6444517E-1,-2.1456635E-1,-2.5631234E-1,1.4303558E-1,-1.0522748E-1,2.3382677E-2,-4.888919E-1,-3.234547E-1,-3.4659916E-1,2.4090737E-2,-1.1273797E-1,-1.8610928E-2,1.0845303E-1,-1.9459233E-2,-1.5173541E-1,-3.147061E-1,-4.1516528E-2,-3.9454073E-1,-1.3040659E-1,-4.9922574E-2,-1.4690876E-1,1.3440709E-1,8.411434E-2,-1.09078534E-1,-1.3455792E-1,2.5694413E-2],"categories":[],"categories_nodes":[],"categories_segments":[],"categories_sizes":[],"default_left":[1,1,1,1,1,0,0,1,1,0,0,0,0,1,0,0,0,0,0,0,0,0,1,1,1,0,0,0,0,0,0,0,0],"id":16,"left_children":[1,3,5,7,9,11,-1,13,15,17,19,-1,-1,21,23,25,-1,-1,-1,-1,-1,-1,27,29,31,-1,-1,-1,-1,-1,-1,-1,-1],"loss_changes":[8.7726974E-1,8.408699E-1,1.4508246E-1,3.8057137E-1,3.4767273E-1,1.8593505E-1,0E0,2.1835709E-1,4.2211884E-1,8.4570855E-2,2.1502158E-1,0E0,0E0,1.089859E-1,3.6634195E-1,4.168439E-2,0E0,0E0,0E0,0E0,0E0,0E0,1.6480476E0,6.164757E-1,4.307196E-1,0E0,0E0,0E0,0E0,0E0,0E0,0E0,0E0],"parents":[2147483647,0,0,1,1,2,2,3,3,4,4,5,5,7,7,8,8,9,9,10,10,13,13,14,14,15,15,22,22,23,23,24,24],"right_children":[2,4,6,8,10,12,-1,14,16,18,20,-1,-1,22,24,26,-1,-1,-1,-1,-1,-1,28,30,32,-1,-1,-1,-1,-1,-1,-1,-1],"split_conditions":[7.408475E-1,8.5846996E-1,2.2452931E-1,7.4114954E-1,1.8583137E-1,1E0,2.2441817E-2,4.680334E-1,3.1676543E-1,1E0,2.846857E-1,-1.0522748E-1,2.3382677E-2,5.812963E-1,5.458267E-1,1E0,2.4090737E-2,-1.1273797E-1,-1.8610928E-2,1.0845303E-1,-1.9459233E-2,-1.5173541E-1,2.9939863E-1,-1E-5,3.880173E-1,-1.3040659E-1,-4.9922574E-2,-1.4690876E-1,1.3440709E-1,8.411434E-2,-1.09078534E-1,-1.3455792E-1,2.5694413E-2],"split_indices":[9,3,0,5,0,9,0,2,0,3,0,0,0,1,2,5,0,0,0,0,0,0,4,5,7,0,0,0,0,0,0,0,0],"split_type":[0,0,0,0,0,0,0,0,0,0,0,0,0,0,0,0,0,0,0,0,0,0,0,0,0,0,0,0,0,0,0,0,0],"sum_hessian":[1.3076933E2,1.24222916E2,6.546415E0,1.1735748E2,6.8654346E0,2.68094E0,3.865475E0,1.0823002E2,9.127466E0,3.647705E0,3.2177296E0,1.481486E0,1.1994541E0,9.01339E1,1.8096113E1,6.1833334E0,2.9441333E0,1.6801035E0,1.9676013E0,1.208691E0,2.0090387E0,8.042998E1,9.70393E0,3.9628537E0,1.4133259E1,3.2044137E0,2.9789195E0,8.184228E0,1.5197022E0,2.0467334E0,1.9161203E0,1.2764173E1,1.3690863E0],"tree_param":{"num_deleted":"0","num_feature":"10","num_nodes":"33","size_leaf_vector":"0"}},{"base_weights":[-4.7725567E-1,-4.8864323E-1,-2.2562957E-1,-3.25054E-1,-5.140077E-1,3.5822716E-2,-3.08356E-1,-4.4228727E-1,1.7261794E-2,-1.5957564E-1,-2.6675385E-1,-1.260631E-1,-1.697495E-2,-1.51914E-1,1.9407548E-2,2.1959285E-1,-1.0319761E-1,7.5595565E-2,-1.3673042E-1,-7.553911E-2,1.6027415E-1,-1.0171298E-1,1.4619014E-1,-8.829116E-2,5.147317E-2],"categories":[],"categories_nodes":[],"categories_segments":[],"categories_sizes":[],"default_left":[1,0,0,1,1,0,1,1,1,0,0,0,0,0,0,0,0,0,0,1,0,0,0,0,0],"id":17,"left_children":[1,3,5,7,9,-1,11,13,15,-1,17,-1,-1,-1,-1,19,-1,21,-1,23,-1,-1,-1,-1,-1],"loss_changes":[2.4616241E-1,3.2312965E-1,2.4357146E-1,7.5323284E-1,3.0345345E-1,0E0,1.4861983E-1,4.836769E-1,4.923199E-1,0E0,6.0380554E-1,0E0,0E0,0E0,0E0,4.3645716E-1,0E0,8.4592605E-1,0E0,2.1684381E-1,0E0,0E0,0E0,0E0,0E0],"parents":[2147483647,0,0,1,1,2,2,3,3,4,4,6,6,7,7,8,8,10,10,15,15,17,17,19,19],"right_children":[2,4,6,8,10,-1,12,14,16,-1,18,-1,-1,-1,-1,20,-1,22,-1,24,-1,-1,-1,-1,-1],"split_conditions":[7.549692E-1,4.472813E-1,7.599913E-1,4.855451E-1,8.235138E-1,3.5822716E-2,4.5861065E-1,7.125849E-1,-1E-5,-1.5957564E-1,8.760736E-1,-1.260631E-1,-1.697495E-2,-1.51914E-1,1.9407548E-2,3.9018205E-1,-1.0319761E-1,4.087405E-1,-1.3673042E-1,2.733577E-1,1.6027415E-1,-1.0171298E-1,1.4619014E-1,-8.829116E-2,5.147317E-2],"split_indices":[2,4,2,9,4,0,0,5,3,0,4,0,0,0,0,4,0,0,0,0,0,0,0,0,0],"split_type":[0,0,0,0,0,0,0,0,0,0,0,0,0,0,0,0,0,0,0,0,0,0,0,0,0],"sum_hessian":[1.2338487E2,1.1714159E2,6.2432837E0,1.7579199E1,9.956239E1,1.1216486E0,5.1216354E0,1.2877114E1,4.702085E0,9.176373E1,7.7986593E0,3.0829692E0,2.0386662E0,1.1432935E1,1.4441797E0,3.2653592E0,1.4367256E0,2.987551E0,4.8111086E0,2.0770793E0,1.1882799E0,1.5764034E0,1.4111476E0,1.0004543E0,1.0766251E0],"tree_param":{"num_deleted":"0","num_feature":"10","num_nodes":"25","size_leaf_vector":"0"}},{"base_weights":[4.4891378E-1,4.9470425E-1,3.740142E-1,5.069675E-1,1.7243378E-1,2.8362398E-3,4.1687658E-1,5.2786857E-1,3.27682E-1,-4.336934E-2,8.9311585E-2,-2.11342E-1,1.2526518E-1,4.374461E-1,2.6353609E-2,5.410935E-1,3.147445E-1,8.578033E-2,4.5869428E-1,1.0533577E-1,-4.4921732E-1,4.5714328E-1,4.0799815E-2,-1.2640723E-2,2.0985106E-2,1.6515839E-1,8.300207E-2,3.9483946E-2,1.4256184E-1,2.865176E-1,-7.066147E-2,1.5800336E-1,1.7294897E-2,6.481077E-3,-1.9977252E-1,4.7294626E-1,3.1976614E-2,4.6908688E-2,-4.559918E-2,1.3213935E-1,-2.9057706E-2,1.487812E-1,5.9194166E-2],"categories":[],"categories_nodes":[],"categories_segments":[],"categories_sizes":[],"default_left":[1,1,0,1,0,1,1,1,0,0,0,0,0,1,0,1,0,1,0,0,0,1,0,0,0,0,0,1,0,1,0,0,0,0,0,1,0,0,0,0,0,0,0],"id":18,"left_children":[1,3,5,7,9,11,13,15,17,-1,-1,19,-1,21,23,25,27,29,31,-1,33,35,-1,-1,-1,-1,-1,37,-1,39,-1,-1,-1,-1,-1,41,-1,-1,-1,-1,-1,-1,-1],"loss_changes":[4.63665E-1,3.6422348E-1,1.2057104E0,2.3763657E-1,2.6957512E-1,8.752158E-1,5.3470325E-1,1.0167694E-1,4.067961E-1,0E0,0E0,1.0282763E0,0E0,3.2100487E-1,1.6284129E-2,7.0877075E-2,3.3585203E-1,4.65823E-1,2.1233737E-1,0E0,5.256617E-1,2.828169E-1,0E0,0E0,0E0,0E0,0E0,1.1434505E-1,0E0,2.9362893E-1,0E0,0E0,0E0,0E0,0E0,2.6504135E-1,0E0,0E0,0E0,0E0,0E0,0E0,0E0],"parents":[2147483647,0,0,1,1,2,2,3,3,4,4,5,5,6,6,7,7,8,8,11,11,13,13,14,14,15,15,16,16,17,17,18,18,20,20,21,21,27,27,29,29,35,35],"right_children":[2,4,6,8,10,12,14,16,18,-1,-1,20,-1,22,24,26,28,30,32,-1,34,36,-1,-1,-1,-1,-1,38,-1,40,-1,-1,-1,-1,-1,42,-1,-1,-1,-1,-1,-1,-1],"split_conditions":[3.916438E-1,9.3629736E-1,3.703152E-1,5.3422797E-1,2.846857E-1,-1E-5,7.8863615E-1,6.9314414E-1,6.1403555E-1,-4.336934E-2,8.9311585E-2,4.5745817E-1,1.2526518E-1,7.016374E-1,4.8551464E-1,1E0,7.599913E-1,3.0253625E-1,1E0,1.0533577E-1,2.9993013E-1,7.795045E-1,4.0799815E-2,-1.2640723E-2,2.0985106E-2,1.6515839E-1,8.300207E-2,-1E-5,1.4256184E-1,-1E-5,-7.066147E-2,1.5800336E-1,1.7294897E-2,6.481077E-3,-1.9977252E-1,6.595711E-1,3.1976614E-2,4.6908688E-2,-4.559918E-2,1.3213935E-1,-2.9057706E-2,1.487812E-1,5.9194166E-2],"split_indices":[0,3,4,9,0,6,4,2,9,0,0,9,0,5,0,5,2,0,9,0,4,9,0,0,0,0,0,7,0,8,0,0,0,0,0,2,0,0,0,0,0,0,0],"split_type":[0,0,0,0,0,0,0,0,0,0,0,0,0,0,0,0,0,0,0,0,0,0,0,0,0,0,0,0,0,0,0,0,0,0,0,0,0,0,0,0,0,0,0],"sum_hessian":[1.8813948E2,1.1327995E2,7.485953E1,1.0857528E2,4.7046766E0,7.8599987E0,6.699953E1,9.5497856E1,1.307742E1,1.2889621E0,3.4157145E0,5.5065465E0,2.3534517E0,6.353298E1,3.4665473E0,8.846922E1,7.0286403E0,5.1757126E0,7.901708E0,1.4951555E0,4.011391E0,5.91514E1,4.3815794E0,1.3613747E0,2.1051726E0,8.437666E1,4.092556E0,3.0472915E0,3.9813485E0,3.252245E0,1.9234674E0,6.4885316E0,1.4131765E0,1.5480752E0,2.463316E0,5.6265804E1,2.8855975E0,2.006158E0,1.0411334E0,2.2142093E0,1.0380355E0,5.1196163E1,5.0696445E0],"tree_param":{"num_deleted":"0","num_feature":"10","num_nodes":"43","size_leaf_vector":"0"}},{"base_weights":[-3.681374E-1,-3.8894123E-1,-2.6494324E-2,-4.1140154E-1,-4.103862E-2,-1.6011952E-1,2.234988E-2,-4.3209702E-1,-1.6550647E-1,-2.2067285E-1,1.6244197E-1,-9.46576E-2,2.0882983E-2,-4.6183577E-1,-2.7405468E-1,-2.9790547E-1,2.4972217E-2,-1.0440961E-1,-9.987825E-3,9.810785E-2,-6.7456127E-3,-1.4472587E-1,-2.6334468E-1,-1.394253E-1,-1.3855687E-1,-1.198064E-1,-3.3428457E-2,1.3134484E-1,-1.4011584E-1,-8.491005E-2,1.5186033E-1],"categories":[],"categories_nodes":[],"categories_segments":[],"categories_sizes":[],"default_left":[1,1,1,1,1,0,0,1,1,0,0,0,0,1,0,0,0,0,0,0,0,0,0,0,0,0,0,0,0,0,0],"id":19,"left_children":[1,3,5,7,9,11,-1,13,15,17,19,-1,-1,21,23,25,-1,-1,-1,-1,-1,-1,27,29,-1,-1,-1,-1,-1,-1,-1],"loss_changes":[7.602968E-1,7.811203E-1,1.1039472E-1,4.1610909E-1,3.0282566E-1,1.454291E-1,0E0,2.8590965E-1,3.2315975E-1,9.1110826E-2,1.2911966E-1,0E0,0E0,1.687746E-1,3.4919846E-1,7.148367E-2,0E0,0E0,0E0,0E0,0E0,0E0,1.490675E0,1.159481E0,0E0,0E0,0E0,0E0,0E0,0E0,0E0],"parents":[2147483647,0,0,1,1,2,2,3,3,4,4,5,5,7,7,8,8,9,9,10,10,13,13,14,14,15,15,22,22,23,23],"right_children":[2,4,6,8,10,12,-1,14,16,18,20,-1,-1,22,24,26,-1,-1,-1,-1,-1,-1,28,30,-1,-1,-1,-1,-1,-1,-1],"split_conditions":[7.408475E-1,8.5846996E-1,2.2452931E-1,7.4114954E-1,1.8583137E-1,1E0,2.234988E-2,4.680334E-1,3.1676543E-1,1E0,2.846857E-1,-9.46576E-2,2.0882983E-2,5.812963E-1,7.0988977E-1,1E0,2.4972217E-2,-1.0440961E-1,-9.987825E-3,9.810785E-2,-6.7456127E-3,-1.4472587E-1,4.6272966E-1,6.9314414E-1,-1.3855687E-1,-1.198064E-1,-3.3428457E-2,1.3134484E-1,-1.4011584E-1,-8.491005E-2,1.5186033E-1],"split_indices":[9,3,0,5,0,9,0,2,0,3,0,0,0,1,2,5,0,0,0,0,0,0,4,2,0,0,0,0,0,0,0],"split_type":[0,0,0,0,0,0,0,0,0,0,0,0,0,0,0,0,0,0,0,0,0,0,0,0,0,0,0,0,0,0,0],"sum_hessian":[1.0742119E2,1.011249E2,6.2962914E0,9.482082E1,6.3040752E0,2.4582887E0,3.8380027E0,8.6761406E1,8.05942E0,3.3033562E0,3.000719E0,1.2435774E0,1.2147113E0,7.140326E1,1.5358145E1,5.130839E0,2.9285808E0,1.4562252E0,1.8471311E0,1.1811233E0,1.8195959E0,6.339834E1,8.004918E0,9.960304E0,5.39784E0,2.5836718E0,2.5471668E0,1.5433824E0,6.4615355E0,8.607363E0,1.3529418E0],"tree_param":{"num_deleted":"0","num_feature":"10","num_nodes":"31","size_leaf_vector":"0"}},{"base_weights":[-4.4947925E-1,-4.6330744E-1,-1.8078145E-1,-2.8438976E-1,-4.9350935E-1,4.2802475E-2,-2.7069217E-1,-4.1136992E-1,3.5647787E-2,-5.155443E-1,-2.1835515E-1,-1.1709393E-1,-1.0318896E-2,2.8496092E-2,-1.4684418E-1,2.1987669E-1,-9.604942E-2,-1.5862124E-1,-9.064534E-2,1.04527816E-1,-1.2815979E-1,-1.45398835E-2,1.4121367E-1,-9.164844E-2,1.3097878E-1],"categories":[],"categories_nodes":[],"categories_segments":[],"categories_sizes":[],"default_left":[1,0,0,1,1,0,1,0,1,1,0,0,0,0,0,0,0,0,0,0,0,0,0,0,0],"id":20,"left_children":[1,3,5,7,9,-1,11,13,15,17,19,-1,-1,-1,-1,21,-1,-1,-1,23,-1,-1,-1,-1,-1],"loss_changes":[2.881794E-1,3.7063217E-1,2.2879875E-1,6.65568E-1,3.69709E-1,0E0,1.4096639E-1,5.031966E-1,4.2896315E-1,4.5513153E-2,5.593345E-1,0E0,0E0,0E0,0E0,3.0530345E-1,0E0,0E0,0E0,6.509352E-1,0E0,0E0,0E0,0E0,0E0],"parents":[2147483647,0,0,1,1,2,2,3,3,4,4,6,6,7,7,8,8,9,9,10,10,15,15,19,19],"right_children":[2,4,6,8,10,-1,12,14,16,18,20,-1,-1,-1,-1,22,-1,-1,-1,24,-1,-1,-1,-1,-1],"split_conditions":[7.549692E-1,4.472813E-1,7.599913E-1,4.855451E-1,8.235138E-1,4.2802475E-2,4.5861065E-1,4.1030344E-1,-1E-5,1E0,8.760736E-1,-1.1709393E-1,-1.0318896E-2,2.8496092E-2,-1.4684418E-1,3.9018205E-1,-9.604942E-2,-1.5862124E-1,-9.064534E-2,4.087405E-1,-1.2815979E-1,-1.45398835E-2,1.4121367E-1,-9.164844E-2,1.3097878E-1],"split_indices":[2,4,2,9,4,0,0,1,3,0,4,0,0,0,0,4,0,0,0,0,0,0,0,0,0],"split_type":[0,0,0,0,0,0,0,0,0,0,0,0,0,0,0,0,0,0,0,0,0,0,0,0,0],"sum_hessian":[9.910124E1,9.356192E1,5.5393186E0,1.50169525E1,7.854497E1,1.0772023E0,4.4621162E0,1.0546911E1,4.470041E0,7.1912415E1,6.632558E0,2.5296993E0,1.932417E0,1.3806581E0,9.166253E0,3.1968515E0,1.2731892E0,6.633354E1,5.578869E0,2.8012247E0,3.831333E0,1.9343121E0,1.2625395E0,1.2892908E0,1.511934E0],"tree_param":{"num_deleted":"0","num_feature":"10","num_nodes":"25","size_leaf_vector":"0"}},{"base_weights":[4.048655E-1,4.5718443E-1,3.2271105E-1,4.7116646E-1,1.4068498E-1,-3.3622347E-2,3.6863628E-1,4.9556944E-1,2.817196E-1,-4.3125033E-2,7.7538505E-2,1.2623242E-1,-1.6517086E-1,3.913308E-1,-1.272491E-2,5.112168E-1,2.732377E-1,5.5188626E-2,4.1639432E-1,-2.1802E-1,1.3052906E-1,4.2224932E-1,1.6601941E-1,-1.2815152E-2,4.923537E-3,1.5675165E-1,7.041353E-2,2.7742961E-2,1.3156766E-1,-1.5629284E-1,1.1309352E-1,1.4733535E-1,1.39102675E-2,8.865058E-2,-1.5068986E-1,4.3750054E-1,8.914718E-3,-9.216057E-2,9.253576E-2,4.0586058E-2,-4.191423E-2,3.638044E-2,-1.2879732E-1,1.3766159E-1,2.6802516E-2,-1.4031534E-3,-4.901711E-2],"categories":[],"categories_nodes":[],"categories_segments":[],"categories_sizes":[],"default_left":[1,1,0,1,0,0,1,1,0,0,0,0,0,1,0,1,0,1,0,1,0,1,0,0,0,0,0,1,0,0,0,0,0,0,0,1,0,1,0,0,0,0,0,0,0,0,0],"id":21,"left_children":[1,3,5,7,9,11,13,15,17,-1,-1,19,-1,21,23,25,27,29,31,33,-1,35,37,-1,-1,-1,-1,39,-1,41,-1,-1,-1,-1,-1,43,-1,45,-1,-1,-1,-1,-1,-1,-1,-1,-1],"loss_changes":[5.3017235E-1,3.4937286E-1,1.0719218E0,2.7428055E-1,2.180394E-1,7.5606096E-1,5.020809E-1,1.3165092E-1,3.5939652E-1,0E0,0E0,8.560967E-1,0E0,3.07765E-1,4.366562E-3,1.0121918E-1,2.8314823E-1,4.55389E-1,1.9034421E-1,7.3994374E-1,0E0,2.6866245E-1,3.297166E-1,0E0,0E0,0E0,0E0,9.086001E-2,0E0,3.7205204E-1,0E0,0E0,0E0,0E0,0E0,2.9544067E-1,0E0,2.2185642E-2,0E0,0E0,0E0,0E0,0E0,0E0,0E0,0E0,0E0],"parents":[2147483647,0,0,1,1,2,2,3,3,4,4,5,5,6,6,7,7,8,8,11,11,13,13,14,14,15,15,16,16,17,17,18,18,19,19,21,21,22,22,27,27,29,29,35,35,37,37],"right_children":[2,4,6,8,10,12,14,16,18,-1,-1,20,-1,22,24,26,28,30,32,34,-1,36,38,-1,-1,-1,-1,40,-1,42,-1,-1,-1,-1,-1,44,-1,46,-1,-1,-1,-1,-1,-1,-1,-1,-1],"split_conditions":[3.916438E-1,9.3629736E-1,3.703152E-1,5.3422797E-1,9.581663E-1,3.5634586E-1,7.8863615E-1,6.9314414E-1,6.1403555E-1,-4.3125033E-2,7.7538505E-2,4.7584406E-1,-1.6517086E-1,5.320222E-1,4.8551464E-1,1E0,7.599913E-1,-1E-5,1E0,-1E-5,1.3052906E-1,7.405142E-1,4.9346733E-1,-1.2815152E-2,4.923537E-3,1.5675165E-1,7.041353E-2,-1E-5,1.3156766E-1,5.7974905E-1,1.1309352E-1,1.4733535E-1,1.39102675E-2,8.865058E-2,-1.5068986E-1,7.795045E-1,8.914718E-3,-1E-5,9.253576E-2,4.0586058E-2,-4.191423E-2,3.638044E-2,-1.2879732E-1,1.3766159E-1,2.6802516E-2,-1.4031534E-3,-4.901711E-2],"split_indices":[0,3,4,9,3,4,4,2,9,0,0,0,0,5,0,5,2,5,9,1,0,3,0,0,0,0,0,7,0,9,0,0,0,0,0,9,0,2,0,0,0,0,0,0,0,0,0],"split_type":[0,0,0,0,0,0,0,0,0,0,0,0,0,0,0,0,0,0,0,0,0,0,0,0,0,0,0,0,0,0,0,0,0,0,0,0,0,0,0,0,0,0,0,0,0,0,0],"sum_hessian":[1.5667233E2,9.292769E1,6.3744648E1,8.852809E1,4.3995967E0,7.308212E0,5.6436436E1,7.699443E1,1.1533663E1,1.2237248E0,3.1758716E0,6.159371E0,1.1488409E0,5.324191E1,3.1945293E0,7.071805E1,6.276377E0,4.8259373E0,6.7077255E0,3.0519118E0,3.1074593E0,4.6048767E1,7.1931396E0,1.3444774E0,1.8500518E0,6.708938E1,3.6286726E0,2.9957016E0,3.2806754E0,3.222439E0,1.6034982E0,5.308478E0,1.3992475E0,1.073417E0,1.9784949E0,4.4216263E1,1.8325044E0,2.6829224E0,4.510217E0,1.9411627E0,1.054539E0,1.8736016E0,1.3488376E0,4.135946E1,2.8568053E0,1.6823491E0,1.0005733E0],"tree_param":{"num_deleted":"0","num_feature":"10","num_nodes":"47","size_leaf_vector":"0"}},{"base_weights":[-3.2776964E-1,-3.506754E-1,-8.436716E-3,-3.7576392E-1,-1.1173751E-2,-1.3437481E-1,7.9270475E-2,-3.9959934E-1,-1.2828565E-1,-1.8862243E-1,1.7921585E-1,-8.493262E-2,1.863469E-2,3.4767594E-2,1.035246E-2,-4.3463558E-1,-2.3012337E-1,-2.5794214E-1,2.4988819E-2,-9.698558E-2,-2.7137995E-3,8.95213E-2,4.790679E-3,-4.738135E-1,-2.78716E-1,6.776205E-2,-3.1999475E-1,-1.0975575E-1,-2.43703E-2,-1.4764594E-1,-4.886804E-2,-1.1888973E-1,5.4647136E-2,1.0248306E-1,-9.026945E-2,-1.1644378E-1,4.0834732E-2],"categories":[],"categories_nodes":[],"categories_segments":[],"categories_sizes":[],"default_left":[1,1,1,1,1,0,0,1,1,0,0,0,0,0,0,1,0,0,0,0,0,0,0,1,1,1,1,0,0,0,0,0,0,0,0,0,0],"id":22,"left_children":[1,3,5,7,9,11,13,15,17,19,21,-1,-1,-1,-1,23,25,27,-1,-1,-1,-1,-1,29,31,33,35,-1,-1,-1,-1,-1,-1,-1,-1,-1,-1],"loss_changes":[6.5642834E-1,7.12039E-1,8.8613756E-2,4.1044426E-1,2.6411444E-1,1.13109365E-1,3.8520824E-3,3.2110596E-1,2.5052786E-1,9.418334E-2,6.919925E-2,0E0,0E0,0E0,0E0,2.200861E-1,4.038568E-1,7.3649764E-2,0E0,0E0,0E0,0E0,0E0,1.7438889E-1,8.3112514E-1,5.201358E-1,3.9916182E-1,0E0,0E0,0E0,0E0,0E0,0E0,0E0,0E0,0E0,0E0],"parents":[2147483647,0,0,1,1,2,2,3,3,4,4,5,5,6,6,7,7,8,8,9,9,10,10,15,15,16,16,17,17,23,23,24,24,25,25,26,26],"right_children":[2,4,6,8,10,12,14,16,18,20,22,-1,-1,-1,-1,24,26,28,-1,-1,-1,-1,-1,30,32,34,36,-1,-1,-1,-1,-1,-1,-1,-1,-1,-1],"split_conditions":[7.408475E-1,8.5846996E-1,2.2452931E-1,7.4114954E-1,1.8583137E-1,1E0,6.8153363E-1,4.680334E-1,3.1676543E-1,1E0,2.846857E-1,-8.493262E-2,1.863469E-2,3.4767594E-2,1.035246E-2,5.8676654E-1,5.458267E-1,1E0,2.4988819E-2,-9.698558E-2,-2.7137995E-3,8.95213E-2,4.790679E-3,7.6356125E-1,4.598427E-1,-1E-5,5.735911E-1,-1.0975575E-1,-2.43703E-2,-1.4764594E-1,-4.886804E-2,-1.1888973E-1,5.4647136E-2,1.0248306E-1,-9.026945E-2,-1.1644378E-1,4.0834732E-2],"split_indices":[9,3,0,5,0,9,4,2,0,3,0,0,0,0,0,0,2,5,0,0,0,0,0,1,4,5,5,0,0,0,0,0,0,0,0,0,0],"split_type":[0,0,0,0,0,0,0,0,0,0,0,0,0,0,0,0,0,0,0,0,0,0,0,0,0,0,0,0,0,0,0,0,0,0,0,0,0],"sum_hessian":[8.914717E1,8.308904E1,6.0581284E0,7.727197E1,5.8170643E0,2.2685912E0,3.7895372E0,6.9922806E1,7.34917E0,3.0156612E0,2.8014028E0,1.0403038E0,1.2282873E0,1.210298E0,2.5792394E0,5.6647358E1,1.3275449E1,4.420928E0,2.9282422E0,1.2660191E0,1.7496423E0,1.140661E0,1.6607417E0,4.364248E1,1.3004878E1,3.1339028E0,1.0141546E1,2.080218E0,2.3407097E0,4.0661186E1,2.9812925E0,1.0473002E1,2.5318756E0,1.84028E0,1.2936226E0,8.952839E0,1.1887075E0],"tree_param":{"num_deleted":"0","num_feature":"10","num_nodes":"37","size_leaf_vector":"0"}},{"base_weights":[-4.2251703E-1,-4.388192E-1,-1.4697058E-1,-4.9836522E-1,-3.1491625E-1,4.0678237E-2,-2.3670217E-1,-1.5523994E-1,-7.659693E-2,-3.7112793E-1,9.369669E-2,-1.0874684E-1,-5.319818E-3,-4.016099E-1,3.914428E-2,-1.09063625E-1,-4.5894197E-1,-1.10376015E-1,4.0341504E-2,4.1343946E-2,-1.5116304E-1],"categories":[],"categories_nodes":[],"categories_segments":[],"categories_sizes":[],"default_left":[1,1,0,1,1,0,1,0,0,1,0,0,0,0,0,1,0,0,0,0,0],"id":23,"left_children":[1,3,5,7,9,-1,11,-1,-1,13,-1,-1,-1,15,-1,17,19,-1,-1,-1,-1],"loss_changes":[3.0004692E-1,4.046402E-1,1.8515483E-1,9.857464E-2,1.0828102E0,0E0,1.297999E-1,0E0,0E0,4.442079E-1,0E0,0E0,0E0,3.5922575E-1,0E0,3.8424125E-1,6.0820484E-1,0E0,0E0,0E0,0E0],"parents":[2147483647,0,0,1,1,2,2,3,3,4,4,6,6,9,9,13,13,15,15,16,16],"right_children":[2,4,6,8,10,-1,12,-1,-1,14,-1,-1,-1,16,-1,18,20,-1,-1,-1,-1],"split_conditions":[7.549692E-1,3.2367587E-1,7.599913E-1,1E0,5.3692573E-1,4.0678237E-2,4.5861065E-1,-1.5523994E-1,-7.659693E-2,6.720407E-1,9.369669E-2,-1.0874684E-1,-5.319818E-3,6.1403555E-1,3.914428E-2,3.1264338E-1,3.4352422E-1,-1.10376015E-1,4.0341504E-2,4.1343946E-2,-1.5116304E-1],"split_indices":[2,4,2,0,8,0,0,0,0,5,0,0,0,9,0,0,3,0,0,0,0],"split_type":[0,0,0,0,0,0,0,0,0,0,0,0,0,0,0,0,0,0,0,0,0],"sum_hessian":[8.015314E1,7.511648E1,5.03666E0,4.8693058E1,2.642342E1,1.0907576E0,3.9459026E0,4.4098164E1,4.594894E0,2.4624907E1,1.7985139E0,2.0899143E0,1.8559881E0,2.3402151E1,1.2227548E0,4.3103247E0,1.9091827E1,1.8418525E0,2.468472E0,1.1921791E0,1.7899649E1],"tree_param":{"num_deleted":"0","num_feature":"10","num_nodes":"21","size_leaf_vector":"0"}},{"base_weights":[3.6248228E-1,4.2108515E-1,2.7550903E-1,4.368539E-1,1.144864E-1,-7.431618E-2,3.24412E-1,4.655343E-1,2.3698097E-1,-4.079941E-2,6.683636E-2,1.0936838E-1,-2.770408E-1,3.490436E-1,-3.685572E-2,4.8441434E-1,2.3162349E-1,2.27832E-2,3.7710857E-1,-1.10419504E-1,-1.505307E-1,3.8286072E-1,1.26335E-1,-2.0482555E-2,5.996712E-4,1.4942966E-1,5.9146803E-2,4.594005E-3,1.2205795E-1,2.3205923E-1,-8.205034E-2,1.3763258E-1,1.1195965E-2,-3.7843898E-1,9.584363E-2,3.9969805E-1,3.9393366E-3,-3.6436174E-2,8.2151785E-2,3.646339E-2,-4.9609795E-2,-2.2056517E-3,1.0485055E-1,-2.4486773E-2,-1.4898162E-1,1.2717934E-1,2.1739367E-2],"categories":[],"categories_nodes":[],"categories_segments":[],"categories_sizes":[],"default_left":[1,1,0,1,0,0,1,1,0,0,0,0,0,1,0,1,0,1,0,0,0,1,0,0,0,0,0,1,0,0,0,0,0,0,0,1,0,0,0,0,0,0,0,0,0,0,0],"id":24,"left_children":[1,3,5,7,9,11,13,15,17,-1,-1,-1,19,21,23,25,27,29,31,33,-1,35,37,-1,-1,-1,-1,39,-1,41,-1,-1,-1,43,-1,45,-1,-1,-1,-1,-1,-1,-1,-1,-1,-1,-1],"loss_changes":[5.579319E-1,3.227644E-1,9.8420715E-1,3.0802155E-1,1.6937722E-1,7.857901E-1,4.5267534E-1,1.6506672E-1,3.2741773E-1,0E0,0E0,0E0,1.6301087E-1,3.008275E-1,5.0919554E-3,1.2656498E-1,2.6091722E-1,4.039733E-1,1.6888702E-1,6.545751E-1,0E0,2.4227285E-1,3.112111E-1,0E0,0E0,0E0,0E0,9.739809E-2,0E0,1.0827069E-1,0E0,0E0,0E0,7.5586975E-2,0E0,2.7057552E-1,0E0,0E0,0E0,0E0,0E0,0E0,0E0,0E0,0E0,0E0,0E0],"parents":[2147483647,0,0,1,1,2,2,3,3,4,4,5,5,6,6,7,7,8,8,12,12,13,13,14,14,15,15,16,16,17,17,18,18,19,19,21,21,22,22,27,27,29,29,33,33,35,35],"right_children":[2,4,6,8,10,12,14,16,18,-1,-1,-1,20,22,24,26,28,30,32,34,-1,36,38,-1,-1,-1,-1,40,-1,42,-1,-1,-1,44,-1,46,-1,-1,-1,-1,-1,-1,-1,-1,-1,-1,-1],"split_conditions":[3.916438E-1,9.3629736E-1,3.703152E-1,5.3422797E-1,2.846857E-1,4.855451E-1,7.8863615E-1,6.9314414E-1,6.1403555E-1,-4.079941E-2,6.683636E-2,1.0936838E-1,3.539451E-1,5.320222E-1,4.8551464E-1,1E0,7.599913E-1,3.0253625E-1,1E0,4.7584406E-1,-1.505307E-1,7.405142E-1,4.9346733E-1,-2.0482555E-2,5.996712E-4,1.4942966E-1,5.9146803E-2,-1E-5,1.2205795E-1,4.5764762E-1,-8.205034E-2,1.3763258E-1,1.1195965E-2,4.3498436E-1,9.584363E-2,7.795045E-1,3.9393366E-3,-3.6436174E-2,8.2151785E-2,3.646339E-2,-4.9609795E-2,-2.2056517E-3,1.0485055E-1,-2.4486773E-2,-1.4898162E-1,1.2717934E-1,2.1739367E-2],"split_indices":[0,3,4,9,0,9,4,2,9,0,0,0,4,5,0,5,2,0,9,0,0,3,0,0,0,0,0,7,0,4,0,0,0,0,0,9,0,0,0,0,0,0,0,0,0,0,0],"split_type":[0,0,0,0,0,0,0,0,0,0,0,0,0,0,0,0,0,0,0,0,0,0,0,0,0,0,0,0,0,0,0,0,0,0,0,0,0,0,0,0,0,0,0,0,0,0,0],"sum_hessian":[1.3122682E2,7.610528E1,5.5121544E1,7.19785E1,4.1267843E0,6.6967754E0,4.842477E1,6.178379E1,1.0194708E1,1.168497E0,2.9582872E0,1.863717E0,4.8330584E0,4.5365536E1,3.0592356E0,5.617843E1,5.6053586E0,4.491552E0,5.703156E0,3.6317205E0,1.2013378E0,3.8760803E1,6.6047297E0,1.2728004E0,1.786435E0,5.2923283E1,3.2551494E0,2.8888679E0,2.7164907E0,2.7593176E0,1.7322344E0,4.315716E0,1.3874402E0,2.3107731E0,1.3209473E0,3.6995014E1,1.7657917E0,2.5304666E0,4.074263E0,1.8800535E0,1.0088143E0,1.2166092E0,1.5427084E0,1.139432E0,1.1713413E0,3.416914E1,2.825873E0],"tree_param":{"num_deleted":"0","num_feature":"10","num_nodes":"47","size_leaf_vector":"0"}},{"base_weights":[-2.8706956E-1,7.0715815E-2,-3.0754116E-1,1.5160854E-1,-2.1807119E-1,-3.687287E-1,-1.8123621E-1,-9.644228E-2,2.841564E-3,-4.1071936E-1,-1.0863065E-1,2.9490022E-2,-2.3387344E-1,-4.3788913E-1,-1.6650802E-2,9.300819E-2,-1.15463234E-1,-3.2299155E-1,5.5674464E-2,-4.562324E-1,1.662931E-2,-1.4674892E-1,1.3004798E-1,-3.6755615E-1,3.4182575E-2,-9.4034486E-2,2.469107E-1,-1.4404567E-1,-1.6691795E-2,-8.895666E-2,1.1829261E-2,-1.2227825E-1,-3.4090348E-2,1.4174369E-1,-6.469062E-3],"categories":[],"categories_nodes":[],"categories_segments":[],"categories_sizes":[],"default_left":[0,0,1,0,1,1,0,0,0,1,0,0,1,1,0,0,0,1,0,1,0,1,0,1,0,0,0,0,0,0,0,0,0,0,0],"id":25,"left_children":[1,3,5,-1,7,9,11,-1,-1,13,15,-1,17,19,-1,21,-1,23,25,27,-1,29,-1,31,-1,-1,33,-1,-1,-1,-1,-1,-1,-1,-1],"loss_changes":[5.789275E-1,7.2903097E-1,4.9070072E-1,0E0,8.9174196E-2,4.7559977E-1,3.983394E-1,0E0,0E0,3.680253E-1,4.8032328E-1,0E0,5.795604E-1,3.6569452E-1,0E0,5.059507E-1,0E0,3.6877882E-1,4.9915972E-1,3.2185507E-1,0E0,1.2118673E-1,0E0,1.10970974E-1,0E0,0E0,2.8241366E-1,0E0,0E0,0E0,0E0,0E0,0E0,0E0,0E0],"parents":[2147483647,0,0,1,1,2,2,4,4,5,5,6,6,9,9,10,10,12,12,13,13,15,15,17,17,18,18,19,19,21,21,23,23,26,26],"right_children":[2,4,6,-1,8,10,12,-1,-1,14,16,-1,18,20,-1,22,-1,24,26,28,-1,30,-1,32,-1,-1,34,-1,-1,-1,-1,-1,-1,-1,-1],"split_conditions":[3.06855E-1,3.7146378E-1,4.6759495E-1,1.5160854E-1,4.9990726E-1,5.3635824E-1,4.9346733E-1,-9.644228E-2,2.841564E-3,9.3629736E-1,7.0988977E-1,2.9490022E-2,3.6510563E-1,1E0,-1.6650802E-2,6.9314414E-1,-1.15463234E-1,7.007193E-1,5.8676654E-1,1E0,1.662931E-2,2.0080967E-1,1.3004798E-1,6.126161E-1,3.4182575E-2,-9.4034486E-2,4.6272966E-1,-1.4404567E-1,-1.6691795E-2,-8.895666E-2,1.1829261E-2,-1.2227825E-1,-3.4090348E-2,1.4174369E-1,-6.469062E-3],"split_indices":[4,3,0,0,3,2,0,0,0,3,2,0,4,9,0,2,0,3,0,5,0,0,0,5,0,0,4,0,0,0,0,0,0,0,0],"split_type":[0,0,0,0,0,0,0,0,0,0,0,0,0,0,0,0,0,0,0,0,0,0,0,0,0,0,0,0,0,0,0,0,0,0,0],"sum_hessian":[7.507127E1,3.930095E0,7.114118E1,1.2694825E0,2.6606123E0,4.663152E1,2.450966E1,1.5454865E0,1.1151259E0,3.965109E1,6.9804296E0,3.746409E0,2.0763252E1,3.6617554E1,3.0335367E0,4.4185467E0,2.5618832E0,1.5788352E1,4.9748993E0,3.537729E1,1.240266E0,2.9266837E0,1.491863E0,1.4471162E1,1.3171902E0,1.4797105E0,3.495189E0,3.319649E1,2.1807952E0,1.293475E0,1.6332085E0,1.1977389E1,2.493773E0,1.486438E0,2.008751E0],"tree_param":{"num_deleted":"0","num_feature":"10","num_nodes":"35","size_leaf_vector":"0"}},{"base_weights":[-3.937733E-1,-4.144076E-1,-1.0008493E-1,-2.2053984E-1,-4.5580006E-1,1.1550239E-1,-1.19428985E-1,-3.6415255E-1,8.196546E-2,-4.889814E-1,-5.840092E-2,-1.377548E-1,4.3628275E-2,-1.5247549E-1,1.10726304E-1,-1.5289569E-1,-6.2407687E-2,4.06731E-2,-1.4778468E-1,3.855545E-2,-9.924548E-2,-8.6482264E-2,6.773217E-3],"categories":[],"categories_nodes":[],"categories_segments":[],"categories_sizes":[],"default_left":[1,0,0,1,1,0,0,1,0,1,0,0,0,0,0,0,0,0,1,0,0,0,0],"id":26,"left_children":[1,3,5,7,9,-1,-1,11,13,15,17,-1,-1,19,-1,-1,-1,-1,21,-1,-1,-1,-1],"loss_changes":[3.6007404E-1,3.9374542E-1,9.726984E-1,5.8481336E-1,6.2836933E-1,0E0,0E0,4.951414E-1,3.880337E-1,1.6022587E-1,1.0629143E-1,0E0,0E0,2.1394545E-1,0E0,0E0,0E0,0E0,9.946839E-2,0E0,0E0,0E0,0E0],"parents":[2147483647,0,0,1,1,2,2,3,3,4,4,7,7,8,8,9,9,10,10,13,13,18,18],"right_children":[2,4,6,8,10,-1,-1,12,14,16,18,-1,-1,20,-1,-1,-1,-1,22,-1,-1,-1,-1],"split_conditions":[8.235138E-1,4.472813E-1,8.5391366E-1,4.855451E-1,7.549692E-1,1.1550239E-1,-1.19428985E-1,7.125849E-1,5.6878173E-1,1E0,7.599913E-1,-1.377548E-1,4.3628275E-2,5.766315E-1,1.10726304E-1,-1.5289569E-1,-6.2407687E-2,4.06731E-2,4.5861065E-1,3.855545E-2,-9.924548E-2,-8.6482264E-2,6.773217E-3],"split_indices":[4,4,4,9,2,0,0,5,0,0,2,0,0,7,0,0,0,0,0,0,0,0,0],"split_type":[0,0,0,0,0,0,0,0,0,0,0,0,0,0,0,0,0,0,0,0,0,0,0],"sum_hessian":[6.5261795E1,6.05935E1,4.6682982E0,1.1774389E1,4.881911E1,1.6654366E0,3.0028615E0,7.8458343E0,3.9285553E0,4.4844322E1,3.9747872E0,6.6960144E0,1.1498197E0,2.4208424E0,1.5077128E0,4.101287E1,3.8314517E0,1.0907904E0,2.8839967E0,1.0483915E0,1.372451E0,1.2012533E0,1.6827435E0],"tree_param":{"num_deleted":"0","num_feature":"10","num_nodes":"23","size_leaf_vector":"0"}},{"base_weights":[3.2143137E-1,4.9019396E-1,2.8413275E-1,1.5375938E-1,2.811702E-2,7.4193686E-2,3.229716E-1,1.537278E-1,-1.3954438E-1,3.4554464E-1,1.0151357E-1,2.3071016E-1,-7.872073E-2,3.682436E-1,1.1773531E-1,-5.892353E-2,2.1980225E-1,3.5609996E-1,-1.214836E-1,4.062431E-1,1.4829001E-1,-1.721764E-1,1.2294206E-1,2.7341023E-1,6.983028E-4,-2.8452342E-2,1.2819022E-1,3.1603336E-2,-9.9751994E-2,1.2943634E-1,5.135076E-2,-4.9629945E-2,7.635029E-2,-7.549709E-2,-6.000932E-3,1.1155095E-1,2.9292218E-2],"categories":[],"categories_nodes":[],"categories_segments":[],"categories_sizes":[],"default_left":[0,1,0,0,0,1,1,1,0,1,0,1,0,1,0,0,1,0,1,1,0,1,0,1,0,0,0,0,0,0,0,0,0,0,0,0,0],"id":27,"left_children":[1,3,5,-1,-1,7,9,11,-1,13,15,17,-1,19,21,-1,23,25,27,29,31,33,-1,35,-1,-1,-1,-1,-1,-1,-1,-1,-1,-1,-1,-1,-1],"loss_changes":[5.647907E-1,1.1905527E-1,7.423768E-1,0E0,0E0,7.5660515E-1,3.5991383E-1,5.3049517E-1,0E0,3.25284E-1,3.50647E-1,6.134788E-1,0E0,4.7768688E-1,7.4200195E-1,0E0,7.767475E-2,3.544203E-1,2.3298743E-1,2.4798393E-1,4.1049287E-1,5.1614523E-2,0E0,5.6773186E-2,0E0,0E0,0E0,0E0,0E0,0E0,0E0,0E0,0E0,0E0,0E0,0E0,0E0],"parents":[2147483647,0,0,1,1,2,2,5,5,6,6,7,7,9,9,10,10,11,11,13,13,14,14,16,16,17,17,18,18,19,19,20,20,21,21,23,23],"right_children":[2,4,6,-1,-1,8,10,12,-1,14,16,18,-1,20,22,-1,24,26,28,30,32,34,-1,36,-1,-1,-1,-1,-1,-1,-1,-1,-1,-1,-1,-1,-1],"split_conditions":[6.0205954E-1,6.3977784E-1,4.6272966E-1,1.5375938E-1,2.811702E-2,5.832003E-1,6.9314414E-1,7.3440015E-1,-1.3954438E-1,8.0975616E-1,7.0988977E-1,5.344816E-1,-7.872073E-2,4.61153E-1,8.5391366E-1,-5.892353E-2,-1E-5,7.157622E-1,2.8794435E-1,8.9214414E-1,5.868813E-1,4.8551464E-1,1.2294206E-1,4.5861065E-1,6.983028E-4,-2.8452342E-2,1.2819022E-1,3.1603336E-2,-9.9751994E-2,1.2943634E-1,5.135076E-2,-4.9629945E-2,7.635029E-2,-7.549709E-2,-6.000932E-3,1.1155095E-1,2.9292218E-2],"split_indices":[5,3,4,0,0,1,2,0,0,4,2,9,0,9,4,0,5,5,0,0,9,0,0,0,0,0,0,0,0,0,0,0,0,0,0,0,0],"split_type":[0,0,0,0,0,0,0,0,0,0,0,0,0,0,0,0,0,0,0,0,0,0,0,0,0,0,0,0,0,0,0,0,0,0,0,0,0],"sum_hessian":[1.10853E2,1.7867355E1,9.298564E1,1.663727E1,1.230084E0,1.4971139E1,7.80145E1,1.3670228E1,1.3009114E0,7.028962E1,7.7248836E0,1.1912117E1,1.7581105E0,6.3359966E1,6.9296517E0,2.0077248E0,5.717159E0,8.776406E0,3.1357112E0,5.3304123E1,1.0055844E1,3.6836956E0,3.2459564E0,4.380219E0,1.33694E0,1.1515001E0,7.624906E0,1.7526184E0,1.3830929E0,4.738657E1,5.917552E0,2.4023263E0,7.6535177E0,1.9903682E0,1.6933274E0,2.0928187E0,2.2874002E0],"tree_param":{"num_deleted":"0","num_feature":"10","num_nodes":"37","size_leaf_vector":"0"}},{"base_weights":[-2.4623826E-1,-1.4086477E-1,-2.0248303E-1,2.4208662E-1,-2.2958247E-1,1.7041174E-1,-3.1405438E-2,-1.857005E-1,-1.364236E-1,-2.6180115E-1,-6.1243206E-2,-3.2340005E-1,2.4274867E-2,-1.3133666E-1,1.5655988E-1,-1.0938575E-1,4.719924E-4,7.51662E-2,-1.0098357E-1,5.3972937E-2,-6.919363E-2,1.111855E-1,-2.021535E-2],"categories":[],"categories_nodes":[],"categories_segments":[],"categories_sizes":[],"default_left":[0,0,0,0,1,0,0,1,0,1,1,1,0,0,0,0,0,0,0,0,0,0,0],"id":28,"left_children":[1,-1,3,5,7,-1,-1,9,-1,11,13,15,17,19,21,-1,-1,-1,-1,-1,-1,-1,-1],"loss_changes":[5.4109406E-1,0E0,7.3264074E-1,4.7944516E-1,4.44E-1,0E0,0E0,4.239099E-1,0E0,5.10422E-1,3.0956846E-1,3.1584764E-1,5.729267E-1,5.009797E-1,2.677852E-1,0E0,0E0,0E0,0E0,0E0,0E0,0E0,0E0],"parents":[2147483647,0,0,2,2,3,3,4,4,7,7,9,9,10,10,11,11,12,12,13,13,14,14],"right_children":[2,-1,4,6,8,-1,-1,10,-1,12,14,16,18,20,22,-1,-1,-1,-1,-1,-1,-1,-1],"split_conditions":[7.062171E-1,-1.4086477E-1,3.06855E-1,3.74282E-1,-1E-5,1.7041174E-1,-3.1405438E-2,4.6759495E-1,-1.364236E-1,5.3635824E-1,3.6467302E-1,9.3629736E-1,7.0988977E-1,4.9346733E-1,4.6272966E-1,-1.0938575E-1,4.719924E-4,7.51662E-2,-1.0098357E-1,5.3972937E-2,-6.919363E-2,1.111855E-1,-2.021535E-2],"split_indices":[7,0,4,3,6,0,0,0,0,2,4,3,2,0,4,0,0,0,0,0,0,0,0],"split_type":[0,0,0,0,0,0,0,0,0,0,0,0,0,0,0,0,0,0,0,0,0,0,0],"sum_hessian":[6.410781E1,8.90887E0,5.5198944E1,2.7156186E0,5.2483326E1,1.0709167E0,1.644702E0,4.5450268E1,7.033059E0,2.7519598E1,1.793067E1,2.2536491E1,4.983106E0,1.3865472E1,4.0651965E0,1.9891489E1,2.6450028E0,3.2506485E0,1.7324579E0,3.1575828E0,1.070789E1,1.7436053E0,2.3215914E0],"tree_param":{"num_deleted":"0","num_feature":"10","num_nodes":"23","size_leaf_vector":"0"}},{"base_weights":[-3.644534E-1,-3.8851744E-1,-5.5993866E-2,-4.1537243E-1,-6.8464726E-2,6.382959E-2,-1.0159574E-1,-1.7355746E-1,-4.7609562E-1,3.8536813E-2,-1.5483901E-1,-3.2321563E-1,8.561618E-2,-1.5057133E-1,-4.854274E-2,-9.351989E-2,1.7322449E-2,5.2459102E-2,-1.3158894E-1,-1.3287377E-1,9.886486E-2,3.7639894E-2,-9.265613E-2],"categories":[],"categories_nodes":[],"categories_segments":[],"categories_sizes":[],"default_left":[1,1,0,0,0,0,0,1,1,0,1,0,0,0,0,0,0,0,0,0,0,0,0],"id":29,"left_children":[1,3,5,7,9,-1,-1,11,13,-1,15,17,19,-1,-1,-1,-1,-1,-1,21,-1,-1,-1],"loss_changes":[3.8397503E-1,4.0592003E-1,4.6131045E-1,5.990877E-1,1.0679656E-1,0E0,0E0,4.5014775E-1,2.1513176E-1,0E0,1.5157965E-1,4.8566866E-1,2.9842877E-1,0E0,0E0,0E0,0E0,0E0,0E0,1.8573067E-1,0E0,0E0,0E0],"parents":[2147483647,0,0,1,1,2,2,3,3,4,4,7,7,8,8,10,10,11,11,12,12,19,19],"right_children":[2,4,6,8,10,-1,-1,12,14,-1,16,18,20,-1,-1,-1,-1,-1,-1,22,-1,-1,-1],"split_conditions":[8.235138E-1,7.549692E-1,8.760736E-1,4.472813E-1,7.599913E-1,6.382959E-2,-1.0159574E-1,4.855451E-1,1E0,3.8536813E-2,4.5861065E-1,4.1030344E-1,5.6878173E-1,-1.5057133E-1,-4.854274E-2,-9.351989E-2,1.7322449E-2,5.2459102E-2,-1.3158894E-1,5.766315E-1,9.886486E-2,3.7639894E-2,-9.265613E-2],"split_indices":[4,2,4,4,2,0,0,9,0,0,0,1,0,0,0,0,0,0,0,7,0,0,0],"split_type":[0,0,0,0,0,0,0,0,0,0,0,0,0,0,0,0,0,0,0,0,0,0,0],"sum_hessian":[5.3660038E1,4.9536015E1,4.1240215E0,4.5426537E1,4.1094785E0,2.240739E0,1.8832825E0,9.892058E0,3.5534477E1,1.1044016E0,3.005077E0,6.1142964E0,3.7777624E0,3.228621E1,3.2482681E0,1.4606377E0,1.5444392E0,1.0533556E0,5.0609407E0,2.2329795E0,1.5447829E0,1.0210751E0,1.2119044E0],"tree_param":{"num_deleted":"0","num_feature":"10","num_nodes":"23","size_leaf_vector":"0"}},{"base_weights":[2.7990612E-1,4.7069535E-1,2.4016684E-1,1.4936543E-1,1.9783959E-2,4.508624E-2,2.7921793E-1,1.2074596E-1,-1.20574445E-1,2.3836811E-1,1.4457174E-1,1.9546056E-1,-7.039435E-2,1.3833265E-1,2.0094788E-1,3.1756252E-1,-1.08430594E-1,-9.7916625E-2,2.2741283E-1,-3.0408973E-2,1.1804359E-1,2.8079115E-2,-8.6641595E-2,-6.0263257E-2,7.527378E-2],"categories":[],"categories_nodes":[],"categories_segments":[],"categories_sizes":[],"default_left":[0,1,0,0,0,1,1,1,0,0,0,1,0,0,0,0,1,0,0,0,0,0,0,0,0],"id":30,"left_children":[1,3,5,-1,-1,7,9,11,-1,13,-1,15,-1,-1,17,19,21,-1,23,-1,-1,-1,-1,-1,-1],"loss_changes":[6.1578226E-1,1.38062E-1,6.0904217E-1,0E0,0E0,5.491526E-1,4.464693E-1,4.024396E-1,0E0,3.9413476E-1,0E0,4.6640295E-1,0E0,0E0,7.967999E-1,3.1209785E-1,1.757924E-1,0E0,5.5253744E-1,0E0,0E0,0E0,0E0,0E0,0E0],"parents":[2147483647,0,0,1,1,2,2,5,5,6,6,7,7,9,9,11,11,14,14,15,15,16,16,18,18],"right_children":[2,4,6,-1,-1,8,10,12,-1,14,-1,16,-1,-1,18,20,22,-1,24,-1,-1,-1,-1,-1,-1],"split_conditions":[6.0205954E-1,6.3977784E-1,4.6272966E-1,1.4936543E-1,1.9783959E-2,5.832003E-1,-1E-5,7.3440015E-1,-1.20574445E-1,8.0975616E-1,1.4457174E-1,5.344816E-1,-7.039435E-2,1.3833265E-1,8.25037E-1,7.157622E-1,2.8794435E-1,-9.7916625E-2,5.196595E-1,-3.0408973E-2,1.1804359E-1,2.8079115E-2,-8.6641595E-2,-6.0263257E-2,7.527378E-2],"split_indices":[5,3,4,0,0,1,1,0,0,4,0,9,0,0,4,5,0,0,3,0,0,0,0,0,0],"split_type":[0,0,0,0,0,0,0,0,0,0,0,0,0,0,0,0,0,0,0,0,0,0,0,0,0],"sum_hessian":[9.512828E1,1.4529101E1,8.059918E1,1.339891E1,1.1301924E0,1.3802585E1,6.67966E1,1.2428759E1,1.3738253E0,5.7403496E1,9.3931E0,1.064159E1,1.7871692E0,6.6280637E0,5.0775433E1,7.559309E0,3.0822806E0,1.8848734E0,4.889056E1,1.1082857E0,6.4510236E0,1.6808034E0,1.4014773E0,2.150422E0,4.674014E1],"tree_param":{"num_deleted":"0","num_feature":"10","num_nodes":"25","size_leaf_vector":"0"}},{"base_weights":[-2.0329483E-1,-1.3624878E-1,-1.5797812E-1,-1.09029986E-1,-1.324945E-1,3.2362255E-1,-1.4063847E-1,1.4619854E-1,3.1120053E-3,-1.0293864E-1,-1.22520834E-1,2.4456146E-1,-1.3091972E-1,1.9451776E-1,-8.188413E-2,-5.96576E-2,7.5215213E-3],"categories":[],"categories_nodes":[],"categories_segments":[],"categories_sizes":[],"default_left":[0,0,1,0,0,0,1,0,0,0,0,0,1,0,0,0,0],"id":31,"left_children":[1,-1,3,5,-1,7,9,-1,-1,11,-1,13,15,-1,-1,-1,-1],"loss_changes":[5.719125E-1,0E0,6.3900256E-1,6.408577E-1,0E0,1.624712E-1,3.7453425E-1,0E0,0E0,3.9675075E-1,0E0,8.3402747E-1,3.7979853E-1,0E0,0E0,0E0,0E0],"parents":[2147483647,0,0,2,2,3,3,5,5,6,6,9,9,11,11,12,12],"right_children":[2,-1,4,6,-1,8,10,-1,-1,12,-1,14,16,-1,-1,-1,-1],"split_conditions":[7.062171E-1,-1.3624878E-1,-1E-5,3.06855E-1,-1.324945E-1,3.74282E-1,-1E-5,1.4619854E-1,3.1120053E-3,5.868813E-1,-1.22520834E-1,4.9346733E-1,5.048125E-1,1.9451776E-1,-8.188413E-2,-5.96576E-2,7.5215213E-3],"split_indices":[7,0,6,4,0,3,8,0,0,9,0,0,0,0,0,0,0],"split_type":[0,0,0,0,0,0,0,0,0,0,0,0,0,0,0,0,0],"sum_hessian":[5.5617836E1,7.129245E0,4.848859E1,4.2533638E1,5.954951E0,2.2668498E0,4.026679E1,1.1238158E0,1.1430341E0,3.6510708E1,3.7560818E0,2.143993E0,3.4366714E1,1.0622041E0,1.0817888E0,2.374866E1,1.0618054E1],"tree_param":{"num_deleted":"0","num_feature":"10","num_nodes":"17","size_leaf_vector":"0"}},{"base_weights":[-3.350794E-1,-3.6154848E-1,-9.121501E-3,-3.9181146E-1,-4.7610946E-2,1.775758E-1,-1.08957894E-1,-4.284645E-1,-1.0401243E-1,3.412445E-2,-1.2687674E-1,-1.1413481E-2,-4.5052654E-1,4.6018545E-2,-5.7672683E-2,-8.533399E-2,1.8071512E-2,-7.592408E-3,-4.7605133E-1,-1.500254E-1,-5.8517266E-2],"categories":[],"categories_nodes":[],"categories_segments":[],"categories_sizes":[],"default_left":[1,1,0,1,0,0,0,0,0,0,1,0,0,0,0,0,0,0,1,0,0],"id":32,"left_children":[1,3,5,7,9,-1,-1,11,13,-1,15,-1,17,-1,-1,-1,-1,-1,19,-1,-1],"loss_changes":[3.9314747E-1,3.8486624E-1,1.1677244E0,3.626156E-1,7.6754235E-2,0E0,0E0,2.7501726E-1,1.5851472E-1,0E0,1.2741043E-1,0E0,3.3540392E-1,0E0,0E0,0E0,0E0,0E0,1.0602045E-1,0E0,0E0],"parents":[2147483647,0,0,1,1,2,2,3,3,4,4,7,7,8,8,10,10,12,12,18,18],"right_children":[2,4,6,8,10,-1,-1,12,14,-1,16,-1,18,-1,-1,-1,-1,-1,20,-1,-1],"split_conditions":[5.3757155E-1,7.549692E-1,5.684187E-1,7.8843397E-1,7.599913E-1,1.775758E-1,-1.08957894E-1,3.4352422E-1,3.7546352E-1,3.412445E-2,4.5861065E-1,-1.1413481E-2,4.1030344E-1,4.6018545E-2,-5.7672683E-2,-8.533399E-2,1.8071512E-2,-7.592408E-3,5.6535995E-1,-1.500254E-1,-5.8517266E-2],"split_indices":[8,2,8,0,2,0,0,3,4,0,0,0,1,0,0,0,0,0,7,0,0],"split_type":[0,0,0,0,0,0,0,0,0,0,0,0,0,0,0,0,0,0,0,0,0],"sum_hessian":[4.4949657E1,4.1472717E1,3.4769382E0,3.7600082E1,3.8726342E0,1.0399163E0,2.437022E0,3.291889E1,4.681192E0,1.1324059E0,2.7402282E0,1.9064233E0,3.1012468E1,1.0064173E0,3.6747746E0,1.2051774E0,1.5350509E0,1.8689576E0,2.914351E1,2.6129005E1,3.0145063E0],"tree_param":{"num_deleted":"0","num_feature":"10","num_nodes":"21","size_leaf_vector":"0"}},{"base_weights":[2.3779657E-1,4.4891846E-1,1.9716147E-1,1.4490163E-1,1.0707856E-2,1.3798486E-1,1.6442558E-1,-9.842029E-2,1.863143E-1,-1.20814815E-1,2.1896888E-1,8.869158E-2,-2.6902533E-1,2.9194015E-1,1.06352694E-1,2.7986534E-2,-1.3439976E-1,1.00393526E-1,6.096303E-3,-5.3302877E-2,4.8254687E-2],"categories":[],"categories_nodes":[],"categories_segments":[],"categories_sizes":[],"default_left":[0,1,0,0,0,0,0,0,0,0,1,0,1,1,0,0,0,0,0,0,0],"id":33,"left_children":[1,3,5,-1,-1,-1,7,-1,9,11,13,-1,15,17,19,-1,-1,-1,-1,-1,-1],"loss_changes":[6.339202E-1,1.631794E-1,5.472071E-1,0E0,0E0,0E0,7.7192867E-1,0E0,6.660056E-1,4.9757624E-1,4.45549E-1,0E0,3.996544E-1,3.9476776E-1,4.058928E-1,0E0,0E0,0E0,0E0,0E0,0E0],"parents":[2147483647,0,0,1,1,2,2,6,6,8,8,9,9,10,10,12,12,13,13,14,14],"right_children":[2,4,6,-1,-1,-1,8,-1,10,12,14,-1,16,18,20,-1,-1,-1,-1,-1,-1],"split_conditions":[6.0205954E-1,6.3977784E-1,5.6535995E-1,1.4490163E-1,1.0707856E-2,1.3798486E-1,3.7146378E-1,-9.842029E-2,6.1403555E-1,4.5745817E-1,4.6759495E-1,8.869158E-2,2.8794435E-1,6.9314414E-1,4.6272966E-1,2.7986534E-2,-1.3439976E-1,1.00393526E-1,6.096303E-3,-5.3302877E-2,4.8254687E-2],"split_indices":[5,3,7,0,0,0,3,0,9,9,0,0,0,2,4,0,0,0,0,0,0],"split_type":[0,0,0,0,0,0,0,0,0,0,0,0,0,0,0,0,0,0,0,0,0],"sum_hessian":[8.3209496E1,1.1808779E1,7.140072E1,1.0752905E1,1.0558735E0,6.463614E0,6.49371E1,2.1680603E0,6.2769043E1,5.7728972E0,5.6996143E1,1.2541549E0,4.5187426E0,3.3619534E1,2.3376612E1,1.6523973E0,2.8663452E0,2.8851381E1,4.7681527E0,3.3993268E0,1.9977283E1],"tree_param":{"num_deleted":"0","num_feature":"10","num_nodes":"21","size_leaf_vector":"0"}},{"base_weights":[-1.6156071E-1,-1.3157995E-1,-1.16015196E-1,-6.824169E-2,-1.2735893E-1,-2.920372E-2,-1.1758242E-1,2.3619385E-2,-2.8275415E-1,1.8723552E-1,-5.679636E-2,-1.2090909E-1,4.0742722E-3,1.783395E-1,2.2634875E-2,-3.3703193E-2,1.1587421E-1],"categories":[],"categories_nodes":[],"categories_segments":[],"categories_sizes":[],"default_left":[0,0,1,1,0,1,0,0,1,0,1,0,0,0,0,0,0],"id":34,"left_children":[1,-1,3,5,-1,7,-1,9,11,13,15,-1,-1,-1,-1,-1,-1],"loss_changes":[5.8542717E-1,0E0,6.2939584E-1,4.9238557E-1,0E0,4.9768406E-1,0E0,4.2196617E-1,2.3350686E-1,4.3471387E-1,5.7811683E-1,0E0,0E0,0E0,0E0,0E0,0E0],"parents":[2147483647,0,0,2,2,3,3,5,5,7,7,8,8,9,9,10,10],"right_children":[2,-1,4,6,-1,8,-1,10,12,14,16,-1,-1,-1,-1,-1,-1],"split_conditions":[7.062171E-1,-1.3157995E-1,-1E-5,-1E-5,-1.2735893E-1,4.6272966E-1,-1.1758242E-1,4.9346733E-1,5.639229E-1,5.868813E-1,3.6931458E-1,-1.2090909E-1,4.0742722E-3,1.783395E-1,2.2634875E-2,-3.3703193E-2,1.1587421E-1],"split_indices":[7,0,6,8,0,4,0,0,0,9,4,0,0,0,0,0,0],"split_type":[0,0,0,0,0,0,0,0,0,0,0,0,0,0,0,0,0],"sum_hessian":[4.94293E1,5.7604394E0,4.366886E1,3.8870895E1,4.7979665E0,3.566048E1,3.2104125E0,3.0262606E1,5.3978763E0,9.5346985E0,2.0727907E1,3.5834005E0,1.8144758E0,1.123601E0,8.411098E0,1.9081898E1,1.6460098E0],"tree_param":{"num_deleted":"0","num_feature":"10","num_nodes":"17","size_leaf_vector":"0"}},{"base_weights":[-3.0308357E-1,-3.821647E-1,-1.510906E-1,-4.429915E-1,-5.1891687E-3,-2.382107E-1,1.2527613E-1,-1.456818E-1,-2.936473E-2,3.6524136E-2,-2.491404E-2,-1.3196047E-1,-5.5571128E-2,1.03873886E-1,-2.0046535E-1,5.7890557E-2,-1.2351077E-1],"categories":[],"categories_nodes":[],"categories_segments":[],"categories_sizes":[],"default_left":[1,1,1,1,0,1,0,0,0,0,0,0,0,0,0,0,0],"id":35,"left_children":[1,3,5,7,9,11,-1,-1,-1,-1,-1,-1,13,-1,15,-1,-1],"loss_changes":[4.1329336E-1,5.737753E-1,8.458624E-1,2.704339E-1,5.4607242E-2,4.8016447E-1,0E0,0E0,0E0,0E0,0E0,0E0,5.546246E-1,0E0,6.411368E-1,0E0,0E0],"parents":[2147483647,0,0,1,1,2,2,3,3,4,4,5,5,12,12,14,14],"right_children":[2,4,6,8,10,12,-1,-1,-1,-1,-1,-1,14,-1,16,-1,-1],"split_conditions":[3.2367587E-1,7.549692E-1,5.3692573E-1,1E0,7.599913E-1,3.1264338E-1,1.2527613E-1,-1.456818E-1,-2.936473E-2,3.6524136E-2,-2.491404E-2,-1.3196047E-1,3.6467302E-1,1.03873886E-1,4.095061E-1,5.7890557E-2,-1.2351077E-1],"split_indices":[4,2,8,0,2,0,0,0,0,0,0,0,4,0,0,0,0],"split_type":[0,0,0,0,0,0,0,0,0,0,0,0,0,0,0,0,0],"sum_hessian":[3.8188328E1,2.4122934E1,1.4065394E1,2.0620584E1,3.50235E0,1.270078E1,1.3646148E0,1.7991825E1,2.6287594E0,1.1171972E0,2.3851528E0,5.366776E0,7.334004E0,1.5754242E0,5.7585797E0,2.0419283E0,3.7166514E0],"tree_param":{"num_deleted":"0","num_feature":"10","num_nodes":"17","size_leaf_vector":"0"}},{"base_weights":[2.0070483E-1,4.2884845E-1,1.6021633E-1,1.3975303E-1,3.8290918E-2,1.313867E-1,1.2936911E-1,-9.10397E-2,1.5075901E-1,-1.03887655E-1,1.8012963E-1,8.2219884E-2,-2.2753224E-1,3.5435778E-1,1.2844045E-1,-1.2619337E-1,1.054743E-3,-1.8694822E-2,1.2480622E-1,2.918932E-2,1.1870225E-1],"categories":[],"categories_nodes":[],"categories_segments":[],"categories_sizes":[],"default_left":[0,1,0,0,0,0,0,0,0,0,0,0,0,0,1,0,0,0,0,0,0],"id":36,"left_children":[1,3,5,-1,-1,-1,7,-1,9,11,13,-1,15,17,19,-1,-1,-1,-1,-1,-1],"loss_changes":[6.222024E-1,5.9518814E-2,5.012535E-1,0E0,0E0,0E0,6.0151935E-1,0E0,4.5153463E-1,3.716635E-1,4.250512E-1,0E0,2.4837685E-1,3.1848288E-1,3.0992115E-1,0E0,0E0,0E0,0E0,0E0,0E0],"parents":[2147483647,0,0,1,1,2,2,6,6,8,8,9,9,10,10,12,12,13,13,14,14],"right_children":[2,4,6,-1,-1,-1,8,-1,10,12,14,-1,16,18,20,-1,-1,-1,-1,-1,-1],"split_conditions":[6.0205954E-1,5.1754874E-1,5.6535995E-1,1.3975303E-1,3.8290918E-2,1.313867E-1,3.7146378E-1,-9.10397E-2,6.1403555E-1,4.5745817E-1,4.6759495E-1,8.2219884E-2,4.9346733E-1,6.566999E-1,-1E-5,-1.2619337E-1,1.054743E-3,-1.8694822E-2,1.2480622E-1,2.918932E-2,1.1870225E-1],"split_indices":[5,3,7,0,0,0,3,0,9,9,0,0,0,5,6,0,0,0,0,0,0],"split_type":[0,0,0,0,0,0,0,0,0,0,0,0,0,0,0,0,0,0,0,0,0],"sum_hessian":[7.379662E1,9.677005E0,6.411962E1,8.131703E0,1.5453012E0,5.090319E0,5.90293E1,2.158746E0,5.6870556E1,5.618696E0,5.125186E1,1.0851301E0,4.533566E0,1.0386536E1,4.0865326E1,2.022525E0,2.5110407E0,1.3375753E0,9.04896E0,3.7821766E1,3.0435596E0],"tree_param":{"num_deleted":"0","num_feature":"10","num_nodes":"21","size_leaf_vector":"0"}},{"base_weights":[-1.2615357E-1,-8.2645886E-2,-1.260855E-1,-1.22283176E-1,-3.756337E-2,-9.7054173E-4,-1.11613534E-1,4.6565868E-2,-2.5080642E-1,8.1794985E-2,-9.949584E-2,-1.1463702E-1,8.635998E-3,1.1529926E-1,1.3573203E-2],"categories":[],"categories_nodes":[],"categories_segments":[],"categories_sizes":[],"default_left":[1,0,0,0,1,1,0,1,1,0,0,0,0,0,0],"id":37,"left_children":[1,3,-1,-1,5,7,-1,9,11,13,-1,-1,-1,-1,-1],"loss_changes":[5.4983675E-1,5.8591807E-1,0E0,0E0,4.542273E-1,4.2118266E-1,0E0,4.2435497E-1,2.1912107E-1,2.9305482E-1,0E0,0E0,0E0,0E0,0E0],"parents":[2147483647,0,0,1,1,4,4,5,5,7,7,8,8,9,9],"right_children":[2,4,-1,-1,6,8,-1,10,12,14,-1,-1,-1,-1,-1],"split_conditions":[-1E-5,7.062171E-1,-1.260855E-1,-1.22283176E-1,-1E-5,4.6272966E-1,-1.11613534E-1,7.0988977E-1,5.639229E-1,3.06855E-1,-9.949584E-2,-1.1463702E-1,8.635998E-3,1.1529926E-1,1.3573203E-2],"split_indices":[6,7,0,0,8,4,0,2,0,4,0,0,0,0,0],"split_type":[0,0,0,0,0,0,0,0,0,0,0,0,0,0,0],"sum_hessian":[4.468045E1,4.003891E1,4.6415415E0,3.8982236E0,3.6140686E1,3.3480743E1,2.659944E0,2.8812237E1,4.6685057E0,2.7074154E1,1.7380815E0,2.9270434E0,1.7414622E0,1.8927505E0,2.5181404E1],"tree_param":{"num_deleted":"0","num_feature":"10","num_nodes":"15","size_leaf_vector":"0"}},{"base_weights":[-2.7322394E-1,-3.0853838E-1,7.116328E-2,-8.948548E-2,-3.717277E-1,-8.038196E-2,8.7130025E-2,-2.509585E-1,1.4137186E-1,-4.3640995E-1,3.336339E-2,4.7707975E-2,-1.1791358E-1,-1.7831558E-2,9.097614E-2,-1.4438955E-1,-2.2581205E-2,-9.715916E-3,3.348322E-2],"categories":[],"categories_nodes":[],"categories_segments":[],"categories_sizes":[],"default_left":[1,0,0,1,1,0,0,0,0,1,1,0,0,0,0,0,0,0,0],"id":38,"left_children":[1,3,5,7,9,-1,-1,11,13,15,17,-1,-1,-1,-1,-1,-1,-1,-1],"loss_changes":[4.3366432E-1,3.9432788E-1,3.723435E-1,3.423863E-1,6.3445807E-1,0E0,0E0,3.6570898E-1,1.4897195E-1,2.9564142E-1,2.515284E-2,0E0,0E0,0E0,0E0,0E0,0E0,0E0,0E0],"parents":[2147483647,0,0,1,1,2,2,3,3,4,4,7,7,8,8,9,9,10,10],"right_children":[2,4,6,8,10,-1,-1,12,14,16,18,-1,-1,-1,-1,-1,-1,-1,-1],"split_conditions":[8.235138E-1,4.472813E-1,4.087405E-1,4.855451E-1,7.549692E-1,-8.038196E-2,8.7130025E-2,4.1030344E-1,5.6878173E-1,1E0,4.0189704E-1,4.7707975E-2,-1.1791358E-1,-1.7831558E-2,9.097614E-2,-1.4438955E-1,-2.2581205E-2,-9.715916E-3,3.348322E-2],"split_indices":[4,4,0,9,2,0,0,1,0,0,5,0,0,0,0,0,0,0,0],"split_type":[0,0,0,0,0,0,0,0,0,0,0,0,0,0,0,0,0,0,0],"sum_hessian":[3.2852425E1,2.9891373E1,2.9610522E0,7.2331166E0,2.2658257E1,1.0756255E0,1.8854268E0,4.204918E0,3.028199E0,1.9471815E1,3.1864414E0,1.0515356E0,3.1533823E0,1.634041E0,1.3941579E0,1.7023163E1,2.4486516E0,2.049982E0,1.1364594E0],"tree_param":{"num_deleted":"0","num_feature":"10","num_nodes":"19","size_leaf_vector":"0"}},{"base_weights":[1.6883811E-1,4.0816486E-1,1.2984367E-1,1.3545236E-1,3.1293865E-2,1.2488729E-1,1.01614095E-1,-9.114464E-2,1.4467159E-1,-1.7414337E-1,9.2834175E-2,9.918407E-2,1.3039061E-1,8.722351E-2,-2.7344337E-1,1.19999826E-1,6.176613E-2,-1.2296666E-1,4.0128306E-2,-8.9472964E-2,3.0102076E-2],"categories":[],"categories_nodes":[],"categories_segments":[],"categories_sizes":[],"default_left":[0,1,0,0,0,0,0,1,1,0,0,0,0,0,0,0,0,0,0,0,0],"id":39,"left_children":[1,3,5,-1,-1,-1,7,9,11,13,-1,15,-1,-1,17,-1,19,-1,-1,-1,-1],"loss_changes":[5.8143604E-1,7.219589E-2,4.4225812E-1,0E0,0E0,0E0,4.7689718E-1,4.1346845E-1,5.6435585E-1,5.226077E-1,0E0,4.3798202E-1,0E0,0E0,5.2290547E-1,0E0,5.5404294E-1,0E0,0E0,0E0,0E0],"parents":[2147483647,0,0,1,1,2,2,6,6,7,7,8,8,9,9,11,11,14,14,16,16],"right_children":[2,4,6,-1,-1,-1,8,10,12,14,-1,16,-1,-1,18,-1,20,-1,-1,-1,-1],"split_conditions":[6.0205954E-1,5.1754874E-1,5.6535995E-1,1.3545236E-1,3.1293865E-2,1.2488729E-1,4.6272966E-1,4.693015E-1,-1E-5,5.2259374E-1,9.2834175E-2,7.9610837E-1,1.3039061E-1,8.722351E-2,8.230741E-1,1.19999826E-1,8.5391366E-1,-1.2296666E-1,4.0128306E-2,-8.9472964E-2,3.0102076E-2],"split_indices":[5,3,7,0,0,0,4,2,1,6,0,4,0,0,0,0,4,0,0,0,0],"split_type":[0,0,0,0,0,0,0,0,0,0,0,0,0,0,0,0,0,0,0,0,0],"sum_hessian":[6.6981705E1,8.058116E0,5.892359E1,6.6268787E0,1.4312376E0,4.0528126E0,5.4870777E1,9.814893E0,4.5055885E1,8.598626E0,1.216267E0,4.010634E1,4.9495482E0,1.1740733E0,7.424553E0,3.364882E0,3.6741455E1,5.5561976E0,1.8683554E0,2.9042857E0,3.383717E1],"tree_param":{"num_deleted":"0","num_feature":"10","num_nodes":"21","size_leaf_vector":"0"}},{"base_weights":[-9.928566E-2,-1.3565959E-1,1.9640602E-1,-1.22800194E-1,-9.1418326E-2,8.14009E-2,8.038385E-3,-5.2937925E-2,-1.1364232E-1,-1.0408079E-1,-1.9588603E-2,1.9103582E-1,-6.7604184E-2,-5.049723E-3,8.707459E-2,9.6063994E-2,-3.0342245E-2],"categories":[],"categories_nodes":[],"categories_segments":[],"categories_sizes":[],"default_left":[1,0,0,0,1,0,0,0,0,0,0,0,0,0,0,0,0],"id":40,"left_children":[1,3,5,-1,7,-1,-1,9,-1,-1,11,13,15,-1,-1,-1,-1],"loss_changes":[4.8297372E-1,4.2717212E-1,5.6986377E-2,0E0,3.5948032E-1,0E0,0E0,3.0135638E-1,0E0,0E0,3.0910334E-1,1.2240553E-1,3.5218975E-1,0E0,0E0,0E0,0E0],"parents":[2147483647,0,0,1,1,2,2,4,4,7,7,10,10,11,11,12,12],"right_children":[2,4,6,-1,8,-1,-1,10,-1,-1,12,14,16,-1,-1,-1,-1],"split_conditions":[8.5846996E-1,6.0205954E-1,9.581663E-1,-1.22800194E-1,-1E-5,8.14009E-2,8.038385E-3,6.991968E-1,-1.1364232E-1,-1.0408079E-1,7.0988977E-1,5.4142696E-1,3.7146378E-1,-5.049723E-3,8.707459E-2,9.6063994E-2,-3.0342245E-2],"split_indices":[3,5,3,0,8,0,0,7,0,0,2,2,3,0,0,0,0],"split_type":[0,0,0,0,0,0,0,0,0,0,0,0,0,0,0,0,0],"sum_hessian":[4.142767E1,3.737168E1,4.0559897E0,4.0522623E0,3.3319416E1,2.3972077E0,1.6587819E0,3.0429253E1,2.8901641E0,2.1420927E0,2.828716E1,4.6984386E0,2.3588722E1,1.786257E0,2.9121819E0,1.1971155E0,2.2391605E1],"tree_param":{"num_deleted":"0","num_feature":"10","num_nodes":"17","size_leaf_vector":"0"}},{"base_weights":[-2.4381313E-1,-2.7959558E-1,1.1319952E-1,-4.0724698E-1,-1.5898699E-1,1.5895858E-1,-8.812769E-2,-1.3943517E-1,-1.3373953E-2,6.456992E-2,-2.3560606E-1,6.8848655E-2,-1.0601082E-1,-2.907971E-1,3.390674E-2,-7.89949E-2,3.19053E-2,3.488653E-3,-3.4387112E-1,-1.3023464E-1,-1.7842319E-2],"categories":[],"categories_nodes":[],"categories_segments":[],"categories_sizes":[],"default_left":[1,1,0,1,0,0,0,0,0,0,1,0,0,0,0,0,0,0,0,0,0],"id":41,"left_children":[1,3,5,7,9,-1,-1,-1,-1,11,13,-1,15,17,-1,-1,-1,-1,19,-1,-1],"loss_changes":[4.1232908E-1,3.5668087E-1,7.366521E-1,2.4340606E-1,2.8439218E-1,0E0,0E0,0E0,0E0,1.5925886E-1,2.6220125E-1,0E0,1.2961292E-1,1.736548E-1,0E0,0E0,0E0,0E0,2.0579767E-1,0E0,0E0],"parents":[2147483647,0,0,1,1,2,2,3,3,4,4,9,9,10,10,12,12,13,13,18,18],"right_children":[2,4,6,8,10,-1,-1,-1,-1,12,14,-1,16,18,-1,-1,-1,-1,20,-1,-1],"split_conditions":[5.3757155E-1,3.2136017E-1,5.684187E-1,7.4308467E-1,4.472813E-1,1.5895858E-1,-8.812769E-2,-1.3943517E-1,-1.3373953E-2,4.7584406E-1,8.0332714E-1,6.8848655E-2,7.3440015E-1,6.914378E-1,3.390674E-2,-7.89949E-2,3.19053E-2,3.488653E-3,1E0,-1.3023464E-1,-1.7842319E-2],"split_indices":[8,0,8,2,4,0,0,0,0,0,2,0,0,3,0,0,0,0,0,0,0],"split_type":[0,0,0,0,0,0,0,0,0,0,0,0,0,0,0,0,0,0,0,0,0],"sum_hessian":[2.8799232E1,2.63728E1,2.4264312E0,1.1657732E1,1.471507E1,1.0496981E0,1.3767331E0,9.818465E0,1.8392661E0,3.7961202E0,1.0918949E1,1.7544535E0,2.0416667E0,9.5698395E0,1.3491096E0,1.0350322E0,1.0066346E0,1.5453024E0,8.024537E0,5.6919374E0,2.3326E0],"tree_param":{"num_deleted":"0","num_feature":"10","num_nodes":"21","size_leaf_vector":"0"}},{"base_weights":[1.4111869E-1,3.851518E-1,1.0538501E-1,1.3002238E-1,2.6491236E-2,3.5277507E-1,7.3743224E-2,1.5542566E-2,1.273308E-1,-8.009849E-2,1.0039353E-1,1.3176806E-1,-1.3022973E-1,1.14948645E-1,1.0379207E-1,-1.5625966E-1,4.7406368E-2,1.12572074E-1,2.2570249E-2,3.3627618E-2,-1.8122995E-2],"categories":[],"categories_nodes":[],"categories_segments":[],"categories_sizes":[],"default_left":[0,1,0,0,0,0,0,0,0,0,1,0,0,0,0,0,0,0,0,0,0],"id":42,"left_children":[1,3,5,-1,-1,7,9,-1,-1,-1,11,13,15,-1,17,-1,19,-1,-1,-1,-1],"loss_changes":[5.03181E-1,7.0424676E-2,4.105413E-1,0E0,0E0,1.0870755E-1,4.872871E-1,0E0,0E0,0E0,3.6272153E-1,2.5938553E-1,4.5644295E-1,0E0,2.791192E-1,0E0,4.299283E-2,0E0,0E0,0E0,0E0],"parents":[2147483647,0,0,1,1,2,2,5,5,6,6,10,10,11,11,12,12,14,14,16,16],"right_children":[2,4,6,-1,-1,8,10,-1,-1,-1,12,14,16,-1,18,-1,20,-1,-1,-1,-1],"split_conditions":[6.0205954E-1,5.1754874E-1,3.0957833E-1,1.3002238E-1,2.6491236E-2,3.7546352E-1,5.196595E-1,1.5542566E-2,1.273308E-1,-8.009849E-2,7.125849E-1,8.416191E-1,4.9346733E-1,1.14948645E-1,5.832003E-1,-1.5625966E-1,9.19385E-1,1.12572074E-1,2.2570249E-2,3.3627618E-2,-1.8122995E-2],"split_indices":[5,3,0,0,0,4,3,0,0,0,5,3,0,0,1,0,5,0,0,0,0],"split_type":[0,0,0,0,0,0,0,0,0,0,0,0,0,0,0,0,0,0,0,0,0],"sum_hessian":[6.1357525E1,6.5880284E0,5.4769497E1,5.271112E0,1.3169165E0,5.0598936E0,4.9709602E1,1.3044288E0,3.7554648E0,2.9517295E0,4.6757874E1,4.1535877E1,5.2219944E0,2.8880007E0,3.8647877E1,1.028355E0,4.1936393E0,2.52335E0,3.6124527E1,2.5963008E0,1.5973386E0],"tree_param":{"num_deleted":"0","num_feature":"10","num_nodes":"21","size_leaf_vector":"0"}},{"base_weights":[-7.500585E-2,-3.6428865E-2,-1.1651184E-1,-1.101237E-1,-2.6840734E-4,2.9858384E-2,-9.987887E-2,6.937296E-2,-2.0539339E-1,1.0034712E-1,-9.090299E-2,-1.0467494E-1,1.2325539E-2,3.8982846E-2,-4.8871867E-2],"categories":[],"categories_nodes":[],"categories_segments":[],"categories_sizes":[],"default_left":[1,0,0,0,1,1,0,1,1,1,0,0,0,0,0],"id":43,"left_children":[1,3,-1,-1,5,7,-1,9,11,13,-1,-1,-1,-1,-1],"loss_changes":[4.6559566E-1,4.355795E-1,0E0,0E0,3.491587E-1,3.1129122E-1,0E0,3.545918E-1,1.8583027E-1,2.2918692E-1,0E0,0E0,0E0,0E0,0E0],"parents":[2147483647,0,0,1,1,4,4,5,5,7,7,8,8,9,9],"right_children":[2,4,-1,-1,6,8,-1,10,12,14,-1,-1,-1,-1,-1],"split_conditions":[-1E-5,7.062171E-1,-1.1651184E-1,-1.101237E-1,-1E-5,4.6272966E-1,-9.987887E-2,7.0988977E-1,5.639229E-1,6.015699E-1,-9.090299E-2,-1.0467494E-1,1.2325539E-2,3.8982846E-2,-4.8871867E-2],"split_indices":[6,7,0,0,8,4,0,2,0,1,0,0,0,0,0],"split_type":[0,0,0,0,0,0,0,0,0,0,0,0,0,0,0],"sum_hessian":[3.868514E1,3.5438713E1,3.2464266E0,2.5914235E0,3.284729E1,3.0954226E1,1.8930635E0,2.7106358E1,3.8478668E0,2.5699265E1,1.4070925E0,2.169167E0,1.6786999E0,2.3557283E1,2.1419818E0],"tree_param":{"num_deleted":"0","num_feature":"10","num_nodes":"15","size_leaf_vector":"0"}},{"base_weights":[-2.1838208E-1,-2.5897333E-1,1.16346955E-1,-3.048109E-1,2.5639623E-2,1.10574864E-1,-7.762156E-2,-3.6028422E-2,-4.0730658E-1,-1.3559375E-2,3.549517E-2,8.902254E-2,-9.0972155E-2,-1.4016947E-1,-1.3481718E-2,-1.0096317E-1,2.543366E-1,4.6452977E-2,-8.5983455E-2,1.5676375E-2,1.0215034E-1],"categories":[],"categories_nodes":[],"categories_segments":[],"categories_sizes":[],"default_left":[1,1,0,0,1,0,0,1,1,0,0,1,0,0,0,0,0,0,0,0,0],"id":44,"left_children":[1,3,5,7,9,-1,-1,11,13,-1,-1,15,-1,-1,-1,17,19,-1,-1,-1,-1],"loss_changes":[3.924321E-1,3.2210946E-1,4.3349043E-1,5.5909264E-1,3.3342205E-2,0E0,0E0,2.5577554E-1,3.0430293E-1,0E0,0E0,1.9644041E-1,0E0,0E0,0E0,1.985121E-1,3.7777513E-2,0E0,0E0,0E0,0E0],"parents":[2147483647,0,0,1,1,2,2,3,3,4,4,7,7,8,8,11,11,15,15,16,16],"right_children":[2,4,6,8,10,-1,-1,12,14,-1,-1,16,-1,-1,-1,18,20,-1,-1,-1,-1],"split_conditions":[8.235138E-1,7.549692E-1,8.5391366E-1,4.472813E-1,4.0189704E-1,1.10574864E-1,-7.762156E-2,-1E-5,1E0,-1.3559375E-2,3.549517E-2,4.855451E-1,-9.0972155E-2,-1.4016947E-1,-1.3481718E-2,6.55321E-1,3.9018205E-1,4.6452977E-2,-8.5983455E-2,1.5676375E-2,1.0215034E-1],"split_indices":[4,2,4,4,5,0,0,3,0,0,0,9,0,0,0,1,4,0,0,0,0],"split_type":[0,0,0,0,0,0,0,0,0,0,0,0,0,0,0,0,0,0,0,0,0],"sum_hessian":[2.566516E1,2.3091291E1,2.5738683E0,1.982712E1,3.2641711E0,1.5493225E0,1.0245458E0,5.8466086E0,1.3980512E1,2.1404455E0,1.1237257E0,4.4370074E0,1.4096012E0,1.1748301E1,2.2322116E0,2.2455702E0,2.191437E0,1.0141276E0,1.2314426E0,1.1352894E0,1.0561476E0],"tree_param":{"num_deleted":"0","num_feature":"10","num_nodes":"21","size_leaf_vector":"0"}},{"base_weights":[1.1818435E-1,3.6369395E-1,8.535329E-2,1.2516281E-1,2.2021085E-2,3.30553E-1,5.6051955E-2,7.5708916E-3,1.2196001E-1,-7.460729E-2,8.100089E-2,1.0975839E-1,5.6058902E-2,-1.7590556E-1,8.552378E-2,3.268712E-3,-1.3965873E-1,-6.51182E-2,3.174296E-2],"categories":[],"categories_nodes":[],"categories_segments":[],"categories_sizes":[],"default_left":[0,1,0,0,0,0,0,0,0,0,0,0,0,0,0,0,0,0,0],"id":45,"left_children":[1,3,5,-1,-1,7,9,-1,-1,-1,11,-1,13,15,17,-1,-1,-1,-1],"loss_changes":[4.3941265E-1,7.156241E-2,3.6074227E-1,0E0,0E0,1.1572212E-1,3.878113E-1,0E0,0E0,0E0,3.0243295E-1,0E0,3.0876666E-1,2.8481573E-1,2.6115525E-1,0E0,0E0,0E0,0E0],"parents":[2147483647,0,0,1,1,2,2,5,5,6,6,10,10,12,12,13,13,14,14],"right_children":[2,4,6,-1,-1,8,10,-1,-1,-1,12,-1,14,16,18,-1,-1,-1,-1],"split_conditions":[6.0205954E-1,5.1754874E-1,3.0957833E-1,1.2516281E-1,2.2021085E-2,1.9022734E-1,5.196595E-1,7.5708916E-3,1.2196001E-1,-7.460729E-2,8.416191E-1,1.0975839E-1,7.5212574E-1,7.125849E-1,5.684187E-1,3.268712E-3,-1.3965873E-1,-6.51182E-2,3.174296E-2],"split_indices":[5,3,0,0,0,0,3,0,0,0,3,0,5,5,8,0,0,0,0],"split_type":[0,0,0,0,0,0,0,0,0,0,0,0,0,0,0,0,0,0,0],"sum_hessian":[5.7366642E1,5.5778575E0,5.1788784E1,4.340472E0,1.2373853E0,4.4306893E0,4.7358097E1,1.1483488E0,3.2823405E0,2.9051125E0,4.4452984E1,2.478439E0,4.1974545E1,4.1706643E0,3.780388E1,3.12043E0,1.050234E0,1.7657795E0,3.60381E1],"tree_param":{"num_deleted":"0","num_feature":"10","num_nodes":"19","size_leaf_vector":"0"}},{"base_weights":[-5.9443247E-2,-2.4881298E-2,-1.11242376E-1,-1.04780436E-1,7.3151565E-3,3.3895265E-2,-9.423139E-2,5.770106E-2,-8.7612204E-2,9.489532E-2,-1.7796464E-1,1.5570882E-2,8.1073545E-2,-9.816342E-2,1.4092285E-2],"categories":[],"categories_nodes":[],"categories_segments":[],"categories_sizes":[],"default_left":[1,0,0,0,1,1,0,1,0,1,1,0,0,0,0],"id":46,"left_children":[1,3,-1,-1,5,7,-1,9,-1,11,13,-1,-1,-1,-1],"loss_changes":[3.9965248E-1,3.7092724E-1,0E0,0E0,2.931389E-1,2.608202E-1,0E0,2.8105584E-1,0E0,1.871184E-1,1.6496152E-1,0E0,0E0,0E0,0E0],"parents":[2147483647,0,0,1,1,4,4,5,5,7,7,9,9,10,10],"right_children":[2,4,-1,-1,6,8,-1,10,-1,12,14,-1,-1,-1,-1],"split_conditions":[-1E-5,7.062171E-1,-1.11242376E-1,-1.04780436E-1,-1E-5,7.0988977E-1,-9.423139E-2,4.6272966E-1,-8.7612204E-2,4.65204E-1,5.639229E-1,1.5570882E-2,8.1073545E-2,-9.816342E-2,1.4092285E-2],"split_indices":[6,7,0,0,8,2,0,4,0,2,0,0,0,0,0],"split_type":[0,0,0,0,0,0,0,0,0,0,0,0,0,0,0],"sum_hessian":[3.6995033E1,3.427083E1,2.724203E0,2.2051723E0,3.206566E1,3.0442715E1,1.6229435E0,2.9137527E1,1.3051863E0,2.5681622E1,3.4559062E0,2.1665627E1,4.0159955E0,1.804172E0,1.6517341E0],"tree_param":{"num_deleted":"0","num_feature":"10","num_nodes":"15","size_leaf_vector":"0"}},{"base_weights":[-1.925587E-1,-2.3303299E-1,4.9374048E-2,-3.742679E-1,-1.1207649E-1,-1.3409044E-1,-6.9722733E-3,-2.102955E-1,3.8719073E-2,-2.916529E-1,3.6717236E-2,2.3113841E-1,-1.6781226E-1,-1.20638214E-1,-1.0004578E-2,1.24562435E-1,-3.05108E-3,-9.064041E-2,2.0336535E-2],"categories":[],"categories_nodes":[],"categories_segments":[],"categories_sizes":[],"default_left":[1,1,0,1,1,0,0,1,0,0,0,0,1,0,0,0,0,0,0],"id":47,"left_children":[1,3,-1,5,7,-1,-1,9,11,13,-1,15,17,-1,-1,-1,-1,-1,-1],"loss_changes":[3.8662708E-1,3.3482754E-1,0E0,2.383585E-1,2.0524603E-1,0E0,0E0,2.5802943E-1,2.8094998E-1,1.8337071E-1,0E0,1.6302417E-1,1.318254E-1,0E0,0E0,0E0,0E0,0E0,0E0],"parents":[2147483647,0,0,1,1,3,3,4,4,7,7,8,8,9,9,11,11,12,12],"right_children":[2,4,-1,6,8,-1,-1,10,12,14,-1,16,18,-1,-1,-1,-1,-1,-1],"split_conditions":[5.3757155E-1,3.2136017E-1,4.9374048E-2,7.4308467E-1,3.2367587E-1,-1.3409044E-1,-6.9722733E-3,8.0332714E-1,4.7584406E-1,1E0,3.6717236E-2,4.472813E-1,3.5711825E-1,-1.20638214E-1,-1.0004578E-2,1.24562435E-1,-3.05108E-3,-9.064041E-2,2.0336535E-2],"split_indices":[8,0,0,2,4,0,0,2,0,0,0,4,9,0,0,0,0,0,0],"split_type":[0,0,0,0,0,0,0,0,0,0,0,0,0,0,0,0,0,0,0],"sum_hessian":[2.3093803E1,2.1055141E1,2.0386634E0,8.747214E0,1.2307926E1,7.0200057E0,1.7272087E0,7.2143598E0,5.0935664E0,5.8958807E0,1.3184793E0,2.5751905E0,2.518376E0,3.7396626E0,2.156218E0,1.0520432E0,1.5231473E0,1.4240719E0,1.0943042E0],"tree_param":{"num_deleted":"0","num_feature":"10","num_nodes":"19","size_leaf_vector":"0"}},{"base_weights":[9.721043E-2,1.1810429E-1,7.062277E-2,3.9157636E-2,3.2439134E-1,2.7852336E-1,1.5336614E-2,1.19496174E-1,5.876349E-3,1.1800488E-2,1.0465225E-1,-2.0036036E-1,4.5416128E-2,2.9080663E-2,-1.0022214E-1,2.0671092E-2,1.0326193E-1,1.0321408E-1,-1.2654203E-3],"categories":[],"categories_nodes":[],"categories_segments":[],"categories_sizes":[],"default_left":[0,0,1,0,1,0,0,0,0,0,0,1,1,0,0,0,0,0,0],"id":48,"left_children":[1,-1,3,5,7,9,11,-1,-1,-1,-1,13,15,-1,-1,17,-1,-1,-1],"loss_changes":[4.059925E-1,0E0,4.0029398E-1,2.645976E-1,1.1767548E-1,5.7080716E-2,2.9421335E-1,0E0,0E0,0E0,0E0,2.535244E-1,2.8405452E-1,0E0,0E0,3.0273512E-1,0E0,0E0,0E0],"parents":[2147483647,0,0,2,2,3,3,4,4,5,5,6,6,11,11,12,12,15,15],"right_children":[2,-1,4,6,8,10,12,-1,-1,-1,-1,14,16,-1,-1,18,-1,-1,-1],"split_conditions":[5.6535995E-1,1.1810429E-1,-1E-5,6.0205954E-1,4.0392143E-1,3.3468628E-1,3.703152E-1,1.19496174E-1,5.876349E-3,1.1800488E-2,1.0465225E-1,2.6755798E-1,6.015699E-1,2.9080663E-2,-1.0022214E-1,3.0957833E-1,1.0326193E-1,1.0321408E-1,-1.2654203E-3],"split_indices":[7,0,6,5,8,5,4,0,0,0,0,0,1,0,0,0,0,0,0],"split_type":[0,0,0,0,0,0,0,0,0,0,0,0,0,0,0,0,0,0,0],"sum_hessian":[5.4033024E1,3.310606E0,5.0722416E1,4.615402E1,4.5683994E0,3.2096357E0,4.294438E1,3.42972E0,1.1386794E0,1.0834877E0,2.126148E0,4.5629473E0,3.8381435E1,1.5009077E0,3.0620396E0,3.6433304E1,1.9481289E0,1.687326E0,3.474598E1],"tree_param":{"num_deleted":"0","num_feature":"10","num_nodes":"19","size_leaf_vector":"0"}},{"base_weights":[-4.39067E-2,-1.2288511E-2,-1.0626236E-1,-9.943629E-2,1.6753668E-2,4.123422E-2,-8.971224E-2,6.3041955E-2,-8.2922086E-2,9.56292E-2,-1.5694971E-1,3.665074E-2,-4.6511125E-2,-9.322169E-2,1.628793E-2],"categories":[],"categories_nodes":[],"categories_segments":[],"categories_sizes":[],"default_left":[1,0,0,0,1,1,0,1,0,1,1,0,0,0,0],"id":49,"left_children":[1,3,-1,-1,5,7,-1,9,-1,11,13,-1,-1,-1,-1],"loss_changes":[3.5297698E-1,3.2153088E-1,0E0,0E0,2.612437E-1,2.305001E-1,0E0,2.271949E-1,0E0,1.9457595E-1,1.5322787E-1,0E0,0E0,0E0,0E0],"parents":[2147483647,0,0,1,1,4,4,5,5,7,7,9,9,10,10],"right_children":[2,4,-1,-1,6,8,-1,10,-1,12,14,-1,-1,-1,-1],"split_conditions":[-1E-5,7.062171E-1,-1.0626236E-1,-9.943629E-2,-1E-5,7.0988977E-1,-8.971224E-2,4.6272966E-1,-8.2922086E-2,6.015699E-1,5.639229E-1,3.665074E-2,-4.6511125E-2,-9.322169E-2,1.628793E-2],"split_indices":[6,7,0,0,8,2,0,4,0,1,0,0,0,0,0],"split_type":[0,0,0,0,0,0,0,0,0,0,0,0,0,0,0],"sum_hessian":[3.542073E1,3.308875E1,2.331982E0,1.8912758E0,3.1197474E1,2.9759897E1,1.437576E0,2.8598022E1,1.1618738E0,2.5400732E1,3.1972907E0,2.3432392E1,1.968341E0,1.577693E0,1.6195978E0],"tree_param":{"num_deleted":"0","num_feature":"10","num_nodes":"15","size_leaf_vector":"0"}},{"base_weights":[-1.6974449E-1,-2.6730725E-1,-1.146827E-2,-3.6447576E-1,4.850846E-2,-1.1877032E-1,1.1849326E-1,-1.339425E-1,-6.0084243E-3,-4.371071E-3,3.393818E-2,-1.087899E-1,4.139238E-2,8.645718E-2,-1.0436455E-1,6.16368E-2,-1.01155676E-1],"categories":[],"categories_nodes":[],"categories_segments":[],"categories_sizes":[],"default_left":[1,1,1,1,1,1,0,0,0,0,0,0,0,0,0,0,0],"id":50,"left_children":[1,3,5,7,9,11,-1,-1,-1,-1,-1,-1,13,-1,15,-1,-1],"loss_changes":[3.381371E-1,4.3579417E-1,4.5996514E-1,2.8866088E-1,1.8312387E-2,3.376928E-1,0E0,0E0,0E0,0E0,0E0,0E0,2.4174511E-1,0E0,3.8907686E-1,0E0,0E0],"parents":[2147483647,0,0,1,1,2,2,3,3,4,4,5,5,12,12,14,14],"right_children":[2,4,6,8,10,12,-1,-1,-1,-1,-1,-1,14,-1,16,-1,-1],"split_conditions":[3.2367587E-1,7.549692E-1,5.3692573E-1,1E0,4.0189704E-1,3.1264338E-1,1.1849326E-1,-1.339425E-1,-6.0084243E-3,-4.371071E-3,3.393818E-2,-1.087899E-1,3.6467302E-1,8.645718E-2,4.095061E-1,6.16368E-2,-1.01155676E-1],"split_indices":[4,2,8,0,5,0,0,0,0,0,0,0,4,0,0,0,0],"split_type":[0,0,0,0,0,0,0,0,0,0,0,0,0,0,0,0,0],"sum_hessian":[2.109596E1,1.2624964E1,8.470997E0,9.536688E0,3.0882754E0,7.2616878E0,1.209309E0,7.4636784E0,2.0730095E0,1.9546916E0,1.1335838E0,2.377527E0,4.8841605E0,1.4506665E0,3.433494E0,1.523574E0,1.90992E0],"tree_param":{"num_deleted":"0","num_feature":"10","num_nodes":"17","size_leaf_vector":"0"}},{"base_weights":[8.411297E-2,3.2276377E-1,5.672114E-2,9.530891E-3,1.1657295E-1,2.867079E-1,3.2485418E-2,-1.0714419E-3,1.1301129E-1,-7.471946E-2,5.6262724E-2,1.0193593E-1,3.3909928E-2,-1.5716802E-1,5.956371E-2,1.6643531E-3,-1.2206343E-1,1.0144461E-1,1.044172E-2],"categories":[],"categories_nodes":[],"categories_segments":[],"categories_sizes":[],"default_left":[0,0,0,0,0,0,0,0,0,0,0,0,0,0,0,0,0,0,0],"id":51,"left_children":[1,3,5,-1,-1,7,9,-1,-1,-1,11,-1,13,15,17,-1,-1,-1,-1],"loss_changes":[3.259646E-1,8.741605E-2,2.607711E-1,0E0,0E0,1.1868426E-1,3.1502312E-1,0E0,0E0,0E0,2.5641623E-1,0E0,2.0690306E-1,2.0724073E-1,2.3828372E-1,0E0,0E0,0E0,0E0],"parents":[2147483647,0,0,1,1,2,2,5,5,6,6,10,10,12,12,13,13,14,14],"right_children":[2,4,6,-1,-1,8,10,-1,-1,-1,12,-1,14,16,18,-1,-1,-1,-1],"split_conditions":[6.0205954E-1,2.846857E-1,3.0957833E-1,9.530891E-3,1.1657295E-1,3.7546352E-1,5.196595E-1,-1.0714419E-3,1.1301129E-1,-7.471946E-2,8.416191E-1,1.0193593E-1,7.5212574E-1,7.125849E-1,5.832003E-1,1.6643531E-3,-1.2206343E-1,1.0144461E-1,1.044172E-2],"split_indices":[5,0,0,0,0,4,3,0,0,0,3,0,5,5,1,0,0,0,0],"split_type":[0,0,0,0,0,0,0,0,0,0,0,0,0,0,0,0,0,0,0],"sum_hessian":[5.1664474E1,4.209148E0,4.7455326E1,1.0498616E0,3.1592865E0,3.491595E0,4.3963734E1,1.053593E0,2.438002E0,2.6858091E0,4.1277924E1,1.9787186E0,3.9299206E1,4.0449038E0,3.5254303E1,3.0410683E0,1.0038356E0,1.8442311E0,3.341007E1],"tree_param":{"num_deleted":"0","num_feature":"10","num_nodes":"19","size_leaf_vector":"0"}},{"base_weights":[-3.8382005E-2,-1.0386515E-2,-1.0132109E-1,-9.092471E-2,1.2716588E-2,-2.103736E-2,2.083569E-1,-9.0199314E-2,5.2897935E-3,8.438738E-2,1.1814643E-2,1.7307349E-1,-3.6701713E-2,1.3223902E-2,8.5609674E-2,2.076528E-2,-4.1576512E-2],"categories":[],"categories_nodes":[],"categories_segments":[],"categories_sizes":[],"default_left":[1,0,0,0,1,0,0,0,0,0,0,0,0,0,0,0,0],"id":52,"left_children":[1,3,-1,-1,5,7,9,-1,11,-1,-1,13,15,-1,-1,-1,-1],"loss_changes":[2.9480162E-1,2.3094763E-1,0E0,0E0,2.1626583E-1,2.0972888E-1,4.8236996E-2,0E0,1.9533099E-1,0E0,0E0,6.772818E-2,2.5001734E-1,0E0,0E0,0E0,0E0],"parents":[2147483647,0,0,1,1,4,4,5,5,6,6,8,8,11,11,12,12],"right_children":[2,4,-1,-1,6,8,10,-1,12,-1,-1,14,16,-1,-1,-1,-1],"split_conditions":[-1E-5,7.062171E-1,-1.0132109E-1,-9.092471E-2,8.3290553E-1,6.0052997E-1,9.581663E-1,-9.0199314E-2,7.0988977E-1,8.438738E-2,1.1814643E-2,6.9314414E-1,6.7781645E-1,1.3223902E-2,8.5609674E-2,2.076528E-2,-4.1576512E-2],"split_indices":[8,7,0,0,3,5,3,0,2,0,0,2,0,0,0,0,0],"split_type":[0,0,0,0,0,0,0,0,0,0,0,0,0,0,0,0,0],"sum_hessian":[3.45953E1,3.2582867E1,2.0124333E0,1.4971111E0,3.1085754E1,2.7272825E1,3.812929E0,1.4501476E0,2.5822678E1,2.1990585E0,1.6138703E0,4.5441556E0,2.1278522E1,2.762882E0,1.7812736E0,1.0590006E1,1.0688517E1],"tree_param":{"num_deleted":"0","num_feature":"10","num_nodes":"17","size_leaf_vector":"0"}},{"base_weights":[-1.5015143E-1,-1.9563219E-1,4.656697E-2,-2.4734136E-1,4.0799174E-2,9.996575E-3,-3.6220986E-1,-5.0487267E-3,3.036631E-2,-1.5156606E-1,1.7394228E-1,-1.3338076E-1,-5.4534413E-3,-8.677521E-2,2.1366362E-2,-4.2637475E-3,8.315387E-2],"categories":[],"categories_nodes":[],"categories_segments":[],"categories_sizes":[],"default_left":[1,1,0,0,1,1,1,0,0,1,0,0,0,0,0,0,0],"id":53,"left_children":[1,3,-1,5,7,9,11,-1,-1,13,15,-1,-1,-1,-1,-1,-1],"loss_changes":[3.1373793E-1,2.3260659E-1,0E0,4.492677E-1,1.606556E-2,1.7537771E-1,2.881353E-1,0E0,0E0,1.2390828E-1,6.722367E-2,0E0,0E0,0E0,0E0,0E0,0E0],"parents":[2147483647,0,0,1,1,3,3,4,4,5,5,6,6,9,9,10,10],"right_children":[2,4,-1,6,8,10,12,-1,-1,14,16,-1,-1,-1,-1,-1,-1],"split_conditions":[8.235138E-1,7.549692E-1,4.656697E-2,4.472813E-1,4.0189704E-1,4.855451E-1,1E0,-5.0487267E-3,3.036631E-2,2.889736E-1,5.6878173E-1,-1.3338076E-1,-5.4534413E-3,-8.677521E-2,2.1366362E-2,-4.2637475E-3,8.315387E-2],"split_indices":[4,2,0,4,5,9,0,0,0,5,0,0,0,0,0,0,0],"split_type":[0,0,0,0,0,0,0,0,0,0,0,0,0,0,0,0,0],"sum_hessian":[1.9403057E1,1.7200659E1,2.2023973E0,1.4075997E1,3.1246626E0,4.6258216E0,9.450175E0,1.9685764E0,1.1560862E0,2.3678756E0,2.2579463E0,7.3883896E0,2.0617855E0,1.2790709E0,1.0888047E0,1.1054833E0,1.152463E0],"tree_param":{"num_deleted":"0","num_feature":"10","num_nodes":"17","size_leaf_vector":"0"}},{"base_weights":[6.841459E-2,1.0759539E-1,4.651306E-2,2.0762485E-2,2.8955144E-1,-7.0662744E-2,3.6245804E-2,1.0902551E-1,7.7193337E-3,1.6630199E-2,9.8133184E-2,3.9331965E-2,-8.650104E-2,3.8735454E-3,1.0352821E-1],"categories":[],"categories_nodes":[],"categories_segments":[],"categories_sizes":[],"default_left":[0,0,1,0,1,0,1,0,0,1,0,1,0,0,0],"id":54,"left_children":[1,-1,3,5,7,-1,9,-1,-1,11,-1,13,-1,-1,-1],"loss_changes":[3.0266166E-1,0E0,2.9352614E-1,1.8455368E-1,7.8499556E-2,0E0,2.3814884E-1,0E0,0E0,2.9554188E-1,0E0,3.1129113E-1,0E0,0E0,0E0],"parents":[2147483647,0,0,2,2,3,3,4,4,6,6,9,9,11,11],"right_children":[2,-1,4,6,8,-1,10,-1,-1,12,-1,14,-1,-1,-1],"split_conditions":[5.6535995E-1,1.0759539E-1,-1E-5,3.7146378E-1,3.8911557E-1,-7.0662744E-2,8.25037E-1,1.0902551E-1,7.7193337E-3,6.786052E-1,9.8133184E-2,-1E-5,-8.650104E-2,3.8735454E-3,1.0352821E-1],"split_indices":[7,0,6,3,4,0,4,0,0,4,0,8,0,0,0],"split_type":[0,0,0,0,0,0,0,0,0,0,0,0,0,0,0],"sum_hessian":[4.9237904E1,2.3759856E0,4.686192E1,4.3353886E1,3.5080326E0,1.6601267E0,4.169376E1,2.4457314E0,1.0623013E0,4.0050007E1,1.6437538E0,3.8085915E1,1.9640896E0,3.6016083E1,2.0698326E0],"tree_param":{"num_deleted":"0","num_feature":"10","num_nodes":"15","size_leaf_vector":"0"}},{"base_weights":[-2.7785832E-2,-2.2215752E-3,-9.637145E-2,-8.793837E-2,2.001401E-2,3.9689716E-2,-8.043136E-2,5.926887E-2,-7.811454E-2,8.715357E-2,-1.384582E-1,3.2573592E-2,-4.1311715E-2,-8.781295E-2,1.6127935E-2],"categories":[],"categories_nodes":[],"categories_segments":[],"categories_sizes":[],"default_left":[1,0,0,0,1,1,0,1,0,1,1,0,0,0,0],"id":55,"left_children":[1,3,-1,-1,5,7,-1,9,-1,11,13,-1,-1,-1,-1],"loss_changes":[2.573733E-1,2.1708187E-1,0E0,0E0,1.8791138E-1,1.9252457E-1,0E0,1.7257169E-1,0E0,1.4082001E-1,1.3386978E-1,0E0,0E0,0E0,0E0],"parents":[2147483647,0,0,1,1,4,4,5,5,7,7,9,9,10,10],"right_children":[2,4,-1,-1,6,8,-1,10,-1,12,14,-1,-1,-1,-1],"split_conditions":[-1E-5,7.062171E-1,-9.637145E-2,-8.793837E-2,-1E-5,7.0988977E-1,-8.043136E-2,4.6272966E-1,-7.811454E-2,6.015699E-1,5.639229E-1,3.2573592E-2,-4.1311715E-2,-8.781295E-2,1.6127935E-2],"split_indices":[6,7,0,0,8,2,0,4,0,1,0,0,0,0,0],"split_type":[0,0,0,0,0,0,0,0,0,0,0,0,0,0,0],"sum_hessian":[3.3402927E1,3.1653027E1,1.7499001E0,1.3825402E0,3.0270487E1,2.9142576E1,1.1279105E0,2.8110874E1,1.0317023E0,2.5126589E1,2.9842849E0,2.3412886E1,1.713703E0,1.3656073E0,1.6186776E0],"tree_param":{"num_deleted":"0","num_feature":"10","num_nodes":"15","size_leaf_vector":"0"}},{"base_weights":[-1.3034E-1,-1.7362453E-1,5.6115717E-2,-3.2604194E-1,-6.003688E-2,-1.2467255E-1,-6.26016E-3,5.4440733E-2,-1.6117832E-1,-7.9798244E-2,6.613472E-2,-1.0279465E-1,4.8995838E-3,-8.512891E-2,3.395983E-2],"categories":[],"categories_nodes":[],"categories_segments":[],"categories_sizes":[],"default_left":[1,1,0,1,0,0,0,0,0,1,0,0,0,0,0],"id":56,"left_children":[1,3,-1,5,7,-1,-1,9,11,13,-1,-1,-1,-1,-1],"loss_changes":[2.9399067E-1,2.7941167E-1,0E0,1.8665403E-1,1.3753867E-1,0E0,0E0,1.5050027E-1,2.0392816E-1,1.9083294E-1,0E0,0E0,0E0,0E0,0E0],"parents":[2147483647,0,0,1,1,3,3,4,4,7,7,8,8,9,9],"right_children":[2,4,-1,6,8,-1,-1,10,12,14,-1,-1,-1,-1,-1],"split_conditions":[5.3757155E-1,3.2136017E-1,5.6115717E-2,7.4308467E-1,4.973114E-1,-1.2467255E-1,-6.26016E-3,4.6908486E-1,7.8843397E-1,3.6268783E-1,6.613472E-2,-1.0279465E-1,4.8995838E-3,-8.512891E-2,3.395983E-2],"split_indices":[8,0,0,2,0,0,0,0,0,4,0,0,0,0,0],"split_type":[0,0,0,0,0,0,0,0,0,0,0,0,0,0,0],"sum_hessian":[1.8035551E1,1.6269726E1,1.7658254E0,6.148701E0,1.0121025E1,4.4742646E0,1.6744368E0,4.9641056E0,5.1569195E0,3.0318105E0,1.932295E0,2.089994E0,3.0669253E0,1.2453747E0,1.7864358E0],"tree_param":{"num_deleted":"0","num_feature":"10","num_nodes":"15","size_leaf_vector":"0"}},{"base_weights":[6.016506E-2,2.899267E-1,3.6985338E-2,1.6990984E-2,1.0555486E-1,2.621061E-1,1.51772285E-2,1.02195986E-1,8.010816E-3,-1.0138436E-1,3.2009568E-2,-7.902326E-2,4.9527153E-2,1.04502626E-1,2.3499833E-2,6.6429526E-2,-7.6315744E-4],"categories":[],"categories_nodes":[],"categories_segments":[],"categories_sizes":[],"default_left":[0,0,0,0,0,1,0,0,0,0,0,0,0,0,0,0,0],"id":57,"left_children":[1,3,5,-1,-1,7,9,-1,-1,-1,11,-1,13,-1,15,-1,-1],"loss_changes":[2.4976419E-1,4.270959E-2,2.1976748E-1,0E0,0E0,6.4190716E-2,2.6409307E-1,0E0,0E0,0E0,2.2825368E-1,0E0,3.0368173E-1,0E0,1.9623691E-1,0E0,0E0],"parents":[2147483647,0,0,1,1,2,2,5,5,6,6,10,10,12,12,14,14],"right_children":[2,4,6,-1,-1,8,10,-1,-1,-1,12,-1,14,-1,16,-1,-1],"split_conditions":[6.0205954E-1,3.1096718E-1,3.0957833E-1,1.6990984E-2,1.0555486E-1,5.802627E-1,3.2599533E-1,1.02195986E-1,8.010816E-3,-1.0138436E-1,3.7146378E-1,-7.902326E-2,8.416191E-1,1.04502626E-1,4.6759495E-1,6.6429526E-2,-7.6315744E-4],"split_indices":[5,0,0,0,0,3,0,0,0,0,3,0,3,0,0,0,0],"split_type":[0,0,0,0,0,0,0,0,0,0,0,0,0,0,0,0,0],"sum_hessian":[4.7910347E1,3.335957E0,4.457439E1,1.1013451E0,2.234612E0,2.9635465E0,4.1610844E1,1.8868543E0,1.0766923E0,1.0252326E0,4.0585613E1,1.4861368E0,3.9099476E1,2.1405463E0,3.6958927E1,3.4251897E0,3.3533737E1],"tree_param":{"num_deleted":"0","num_feature":"10","num_nodes":"17","size_leaf_vector":"0"}},{"base_weights":[-2.6915729E-2,-5.7588223E-2,1.615684E-1,-9.4938435E-2,-3.192371E-2,6.309138E-2,1.1062257E-2,-6.622957E-2,4.431087E-2,1.1900926E-1,-1.18462674E-1,2.503212E-1,-7.818476E-2,-1.9260602E-1,1.17923304E-1,3.2167915E-2,1.006095E-1,-7.61006E-2,4.6991456E-2,5.402596E-2,1.2192871E-2],"categories":[],"categories_nodes":[],"categories_segments":[],"categories_sizes":[],"default_left":[1,0,0,0,1,0,0,0,0,1,1,0,0,1,1,0,0,0,0,0,0],"id":58,"left_children":[1,3,5,-1,7,-1,-1,9,-1,11,13,15,-1,17,19,-1,-1,-1,-1,-1,-1],"loss_changes":[2.0602225E-1,1.8922397E-1,2.2782996E-2,0E0,1.8483798E-1,0E0,0E0,2.515642E-1,0E0,3.5920668E-1,3.6703065E-1,2.3568064E-2,0E0,3.6675864E-1,1.8194444E-2,0E0,0E0,0E0,0E0,0E0,0E0],"parents":[2147483647,0,0,1,1,2,2,4,4,7,7,9,9,10,10,11,11,13,13,14,14],"right_children":[2,4,6,-1,8,-1,-1,10,-1,12,14,16,-1,18,20,-1,-1,-1,-1,-1,-1],"split_conditions":[8.5846996E-1,3.0957833E-1,9.581663E-1,-9.4938435E-2,7.4114954E-1,6.309138E-2,1.1062257E-2,7.0988977E-1,4.431087E-2,-1E-5,7.408475E-1,7.5359815E-1,-7.818476E-2,5.812963E-1,3.9289442E-1,3.2167915E-2,1.006095E-1,-7.61006E-2,4.6991456E-2,5.402596E-2,1.2192871E-2],"split_indices":[3,0,3,0,5,0,0,2,0,1,9,0,0,1,0,0,0,0,0,0,0],"split_type":[0,0,0,0,0,0,0,0,0,0,0,0,0,0,0,0,0,0,0,0,0],"sum_hessian":[3.30267E1,2.9001652E1,4.025045E0,1.5938703E0,2.7407782E1,2.4003258E0,1.6247194E0,2.3542776E1,3.865006E0,4.8971524E0,1.8645624E1,3.8916454E0,1.0055069E0,1.4334698E1,4.310926E0,2.293476E0,1.5981693E0,1.2434317E1,1.9003807E0,1.651879E0,2.659047E0],"tree_param":{"num_deleted":"0","num_feature":"10","num_nodes":"21","size_leaf_vector":"0"}},{"base_weights":[-1.127557E-1,-2.1057981E-1,3.5115574E-2,-3.1496444E-1,4.0454526E-2,-7.362011E-2,1.08920045E-1,-1.2538432E-1,-4.0579005E-3,-3.7970976E-3,2.8093206E-2,-9.582593E-2,6.629787E-2,7.857634E-2,-6.981304E-2,5.518954E-2,-8.950545E-2],"categories":[],"categories_nodes":[],"categories_segments":[],"categories_sizes":[],"default_left":[1,1,1,1,1,1,0,0,0,0,0,0,0,0,0,0,0],"id":59,"left_children":[1,3,5,7,9,11,-1,-1,-1,-1,-1,-1,13,-1,15,-1,-1],"loss_changes":[2.6741654E-1,2.999763E-1,3.1250986E-1,2.3821908E-1,1.2783153E-2,2.5675884E-1,0E0,0E0,0E0,0E0,0E0,0E0,1.5656383E-1,0E0,2.782957E-1,0E0,0E0],"parents":[2147483647,0,0,1,1,2,2,3,3,4,4,5,5,12,12,14,14],"right_children":[2,4,6,8,10,12,-1,-1,-1,-1,-1,-1,14,-1,16,-1,-1],"split_conditions":[3.2367587E-1,7.549692E-1,5.3692573E-1,1E0,4.0189704E-1,3.1264338E-1,1.08920045E-1,-1.2538432E-1,-4.0579005E-3,-3.7970976E-3,2.8093206E-2,-9.582593E-2,3.6467302E-1,7.857634E-2,4.095061E-1,5.518954E-2,-8.950545E-2],"split_indices":[4,2,8,0,5,0,0,0,0,0,0,0,4,0,0,0,0],"split_type":[0,0,0,0,0,0,0,0,0,0,0,0,0,0,0,0,0],"sum_hessian":[1.6975468E1,9.961422E0,7.014045E0,6.8559337E0,3.1054885E0,5.849948E0,1.1640968E0,4.8220253E0,2.0339081E0,1.9351825E0,1.170306E0,1.656681E0,4.193267E0,1.3412521E0,2.852015E0,1.4437994E0,1.4082156E0],"tree_param":{"num_deleted":"0","num_feature":"10","num_nodes":"17","size_leaf_vector":"0"}},{"base_weights":[4.80118E-2,9.712832E-2,3.008802E-2,9.049167E-3,2.5761104E-1,-1.4563155E-1,3.0173969E-2,9.53048E-2,1.8200532E-2,3.1084675E-2,-2.6666817E-1,9.797213E-2,7.783722E-3,-2.494592E-2,-9.596896E-2,-1.3372718E-2,9.180665E-2,-1.2929824E-2,3.7963238E-2],"categories":[],"categories_nodes":[],"categories_segments":[],"categories_sizes":[],"default_left":[0,0,1,0,1,1,0,0,0,0,0,0,1,0,0,1,0,0,0],"id":60,"left_children":[1,-1,3,5,7,9,11,-1,-1,-1,13,-1,15,-1,-1,17,-1,-1,-1],